svm_type c_svc
kernel_type rbf
gamma 0.125
nr_class 2
total_sv 2046
rho 1.51454
label 1 -1
nr_sv 1042 1004
SV
128 1:-1 2:-1 3:-1 4:-1 5:-1 6:-1 7:-1 8:-1 9:-1 10:-1 11:-1 12:-1 13:-1 14:-1 15:-1 16:-1 17:-1 18:-1 19:-1 20:-1 21:-1 22:-1 23:-1 24:-1 25:-1 26:-1 27:-1 28:-1 29:-1 30:-1 31:-1 32:-1 33:-1 34:-1 35:-1 36:-1 37:-1 38:-1 39:-1 40:-1 41:-1 42:-1 44:-1 45:-1 46:-1 47:-1 48:-1 49:-1 50:-1 51:-1 52:-1 53:-1 54:-1 55:-1 56:-1 57:-1 58:-1 59:-1 60:-1 61:-1 62:-1 63:-1 64:-1 65:-1 66:-1 67:-1 68:-1 69:-1 70:-1 71:-1 72:-1 73:-1 74:-1 75:-1 76:-1 77:-1 78:-1 79:-1 80:-1 81:-1 82:-1 83:-1 84:-1 85:-1 86:-1 87:-1 88:-1 89:-1 90:-1 91:-1 92:-1 93:-1 94:-1 95:-1 96:-1 97:-1 98:-1 99:-1 100:-1 101:-1 102:-1 103:-1 104:-1 105:-1 106:-1 107:-1 108:-1 109:-1 110:-1 111:-1 112:-1 113:-1 114:-1 115:-1 116:-1 117:-1 118:-1 119:-1 120:-1 121:-0.913043 122:-1 123:-1 124:-1 125:-1 126:-1 127:-1 128:-1 129:-1 130:-1 131:-1 132:-1 133:-1 134:-1 135:-1 136:-1 138:-1 139:-1 140:-1 141:-1 142:-1 143:-1 144:-1 145:-1 146:-1 147:-1 148:-1 149:-1 150:-1 151:-1 152:-1 153:-1 154:-1 155:-1 156:-1 157:-1 158:-1 159:-1 160:-1 161:-1 162:-0.833333 163:-1 164:-1 165:-1 167:-1 168:-1 169:-1 170:-1 171:-1 172:-1 173:-1 174:-1 175:-1 176:-1 177:-1 178:-1 179:-0.666667 180:-1 181:-1 182:-1 183:-1 184:-1 185:-1 186:-1 187:-1 188:-1 189:-1 190:-1 191:-1 192:-1 193:-1 194:-1 195:-1 196:-1 197:-1 198:-0.714286 
7.686994551637187 1:-1 2:-1 3:-1 4:-1 5:-1 6:-1 7:-1 8:-1 9:-1 10:-1 11:-1 12:-1 13:-1 14:-1 15:-1 16:-1 17:-1 18:-1 19:-1 20:-1 21:-1 22:-1 23:-1 24:-1 25:-1 26:-1 27:-1 28:-1 29:-1 30:-1 31:-1 32:-1 33:-1 34:-1 35:-1 36:-1 37:-1 38:-1 39:-1 40:-1 41:-1 42:-1 43:-1 44:-1 45:-1 46:-1 47:-1 49:-1 50:-1 51:-1 52:-1 53:-1 54:-1 55:-1 56:-1 57:-1 58:-1 59:-1 60:-1 61:-1 62:-1 63:-1 64:-1 65:-1 66:-1 67:-1 68:-1 69:-0.875 70:-1 71:-1 72:-1 73:-1 74:-1 75:-1 76:-1 77:-1 78:-1 79:-1 80:-1 81:-1 82:-1 83:-1 85:-1 86:-1 87:-1 88:-1 89:-1 90:-1 91:-1 92:-1 93:-1 94:-1 95:-1 96:-1 97:-1 98:-1 99:-1 100:-1 101:-1 102:-1 103:-1 104:-1 105:-1 106:-1 107:-1 108:-1 109:-1 110:-1 111:-1 112:-1 113:-1 114:-1 115:-1 116:-1 117:-1 118:-1 119:-1 120:-1 121:-0.565217 122:-1 123:-1 124:-1 125:-1 126:-1 127:-1 128:-1 129:-1 130:-1 131:-1 132:-1 133:-1 134:-1 135:-1 136:-1 137:-1 138:-1 139:-1 140:-1 141:-1 142:-1 143:-1 144:-1 145:-1 146:-1 147:-1 148:-1 149:-1 150:-1 151:-1 152:-1 154:-1 155:-1 156:-1 157:-1 158:-1 159:-1 160:-1 161:-1 162:-1 163:-0.666667 164:-1 165:-1 167:-1 168:-1 169:-1 170:-1 171:-1 172:-1 173:-1 174:-1 175:-1 176:-1 177:-1 178:-1 179:-1 180:-1 181:-1 182:-1 183:-1 184:-1 185:-1 186:-1 187:-0.75 188:-1 189:-1 190:-1 191:-1 192:-1 193:-1 194:-1 195:-1 196:-1 197:-1 198:-0.314286 
128 1:-1 2:-1 3:-1 4:-1 5:-1 6:-1 7:-0.666667 8:-1 9:-1 10:-1 11:-0.666667 12:-1 13:-1 14:-1 15:-1 16:-1 17:-1 18:-1 19:-1 20:-1 21:-1 22:-1 23:-1 24:-1 25:-1 26:-1 27:-1 28:-1 29:-1 30:-1 31:-1 32:-1 33:-0.857143 34:-1 35:-1 36:-1 37:-1 38:-1 39:-1 40:-1 41:-1 42:-1 43:-1 44:-1 45:-1 46:-1 47:-1 48:-1 49:-1 50:-1 51:-1 52:-1 53:-1 54:-1 55:-1 56:-1 57:-0.5 58:-1 59:-1 60:-1 61:-1 62:-1 63:-0.826087 64:-1 65:-1 66:-1 67:-1 68:-1 69:-1 70:-1 71:-1 72:-1 73:-1 74:-1 75:-1 76:-1 77:-1 78:-1 79:-1 80:-1 81:-1 82:-1 83:-1 84:-1 85:-1 86:-1 87:-1 88:-1 89:-1 90:-1 91:-1 92:-1 93:-1 94:-1 95:-1 96:-1 97:-1 98:-1 99:-1 100:-1 101:-1 102:-1 103:-1 104:-1 105:-1 106:-1 107:-1 108:-1 109:-1 110:-1 111:-1 112:-1 113:-1 114:-1 115:-1 116:-1 117:-1 118:-1 119:-1 120:-1 121:-0.913043 122:-1 123:-1 124:-1 125:-1 126:-1 127:-1 128:-1 129:-1 130:-1 131:-1 132:-1 133:-1 134:-1 135:-1 136:-1 137:-1 138:-1 139:-1 140:-1 141:-1 142:-1 143:-1 144:-1 145:-1 146:-1 147:-1 148:-1 149:-1 150:-1 151:-1 152:-1 153:-1 154:-1 155:-1 156:-1 157:-1 158:-1 159:-1 160:-1 161:-1 162:-0.666667 163:-1 164:-1 165:-1 167:-1 168:-1 169:-1 170:-1 171:-1 172:-1 173:-1 174:-1 175:-1 176:-1 177:-1 178:-1 179:-1 180:-1 181:-1 182:-1 183:-1 184:-1 185:-1 186:-1 187:-1 188:-1 189:-1 190:-1 191:-1 192:-1 193:-1 194:-1 195:-1 196:-1 197:-1 198:-0.6 
2.56423518523211 1:-1 2:-1 3:-1 4:-1 5:-1 6:-1 7:-1 8:-1 9:-1 10:-1 11:-1 12:-1 13:-1 14:-1 15:-1 16:-1 17:-1 18:-1 19:-1 20:-1 21:-1 22:-1 23:-1 24:-1 25:-1 26:-1 27:-1 28:-1 29:-1 30:-1 31:-1 32:-1 33:-1 34:-1 35:-1 36:-1 37:-1 38:-1 39:-1 40:-1 41:-1 42:-1 43:-1 44:-0.692308 45:-1 46:-1 47:-1 48:-1 49:-1 50:-1 51:-1 52:-1 53:-1 54:-1 55:-1 56:-1 57:-1 58:-1 59:-1 60:-1 61:-1 62:-1 63:-1 64:-1 65:-1 66:-1 67:-1 68:-1 69:-1 70:-1 71:-1 72:-1 73:-1 74:-1 75:-1 76:-1 77:-1 78:-1 79:-1 80:-1 81:-1 82:-1 83:-1 84:1 85:0.333333 86:-1 87:-1 88:-1 89:-1 90:-1 91:-1 92:-1 93:-1 94:-1 95:-1 96:-1 97:-1 98:-1 99:-1 100:-1 101:-1 102:-1 103:-1 104:-1 105:-1 106:-1 107:-1 108:-1 109:-1 110:-1 111:-1 112:-1 113:-1 114:-1 115:-1 116:-1 117:-1 118:-1 119:-1 120:-1 121:-0.826087 122:-0.833333 123:-1 124:-1 125:-1 126:-1 127:-1 128:-1 129:-1 130:-1 131:-1 132:-1 133:-1 134:-1 135:-1 136:-1 137:-1 138:-1 139:-1 140:-1 141:-1 142:-1 143:-1 144:-1 145:-1 146:-1 147:-1 148:-1 149:-1 150:-1 151:-1 152:-1 153:-1 154:-1 155:-1 156:-1 157:-1 158:-1 159:-1 160:-1 161:-1 162:-1 163:-1 164:-1 165:-1 167:-1 168:-1 169:-1 171:-1 172:-1 173:-1 174:-1 175:-1 176:-1 177:-1 178:-1 179:-1 180:-1 181:-1 182:-1 183:-1 184:-1 185:-1 186:-1 187:-0.875 188:-1 189:-1 190:-1 191:-1 192:-1 193:-1 194:-1 195:-1 196:-1 197:-1 198:-0.942857 
128 1:-1 2:-1 3:-1 4:-1 5:-1 6:-1 7:-1 8:-1 9:-1 10:-1 11:-1 12:-1 13:-1 14:-1 15:-1 16:-1 17:-1 18:-1 19:-1 20:-1 21:-1 22:-1 23:-1 24:-1 25:-1 26:-1 27:-1 28:-1 29:-1 30:-1 31:-1 32:-1 33:-1 34:-1 35:-1 36:-1 37:-1 38:-1 39:-1 40:-1 41:-1 42:-1 43:-1 44:-1 45:-1 46:-1 47:-1 48:-1 49:-1 50:-1 51:-1 52:-1 53:-1 54:-1 55:-1 56:-1 57:-1 58:-1 59:-1 60:-1 61:-1 62:-1 63:-0.913043 64:-1 65:-1 66:-1 67:-1 68:-1 69:-1 70:-1 71:-1 72:-1 73:-1 74:-1 75:-1 76:-1 77:-1 78:-1 79:-1 80:-1 81:-0.8 82:-1 83:-1 84:-1 85:-1 86:-1 87:-1 88:-1 89:-1 90:-1 91:-1 92:-1 93:-1 94:-1 95:-1 96:-1 97:-1 98:-1 99:-1 100:-1 101:-1 102:-1 103:-1 104:-1 105:-1 106:-1 107:-1 108:-1 109:-1 110:-1 111:-1 112:-1 113:-1 114:-1 115:-1 116:-1 117:-1 118:-1 119:-0.948718 120:-1 121:-1 122:-0.666667 123:-1 124:-1 125:-1 126:-1 127:-1 128:-1 129:-1 130:-1 131:-1 132:-1 133:-1 134:-1 135:-1 136:-1 137:-1 138:-1 139:-1 140:-1 141:-1 142:-1 143:-1 144:-1 145:-1 146:-1 147:-1 148:-1 149:-1 150:-1 151:-1 152:-1 153:-1 154:-1 155:-1 156:-1 157:-1 158:-1 159:-1 160:-1 161:-1 162:-1 163:-1 164:-1 165:-1 167:-1 168:-1 169:-1 170:-1 171:-1 172:-1 173:-1 174:-1 175:-1 176:-1 177:-1 178:-1 179:-1 180:-1 181:-1 182:-1 183:-1 184:-0.8 185:-1 186:-1 187:-1 188:-1 189:-1 190:-1 191:-1 192:-1 193:-1 194:-1 195:-1 196:-1 197:-1 198:-1 
128 1:-1 2:-1 3:-1 4:-1 5:-1 6:-1 7:-1 8:-1 9:-1 10:-1 11:-1 12:-1 13:-1 14:-1 15:-1 16:-1 17:-1 18:-1 19:-1 20:-1 21:-1 22:-1 23:-1 24:-1 25:-1 26:-1 27:-1 28:-1 29:-1 30:-1 31:-1 32:-1 33:-1 34:-1 35:-1 36:-1 37:-1 38:-1 39:-1 40:-1 41:-1 42:-1 43:-1 44:-0.692308 45:-1 46:-1 47:-1 48:-1 49:-1 50:-1 51:-1 52:-1 53:-1 54:-1 55:-1 56:-1 57:-1 58:-1 59:-1 60:-1 61:-1 62:-1 63:-1 64:-1 65:-1 66:-1 67:-1 68:-1 69:-0.875 70:-1 71:-1 72:-1 73:-1 74:-1 75:-1 76:-1 77:-1 78:-1 79:-1 80:-1 81:-1 82:-1 83:-1 84:-1 85:-1 86:-1 87:-1 88:-1 89:-1 90:-1 91:-1 92:-1 93:-1 94:-1 95:-1 96:-1 97:-1 98:0.2 99:-1 100:-1 101:-1 102:-1 103:-1 104:-1 105:-1 106:-1 107:-1 108:-1 109:-1 110:-1 111:-1 112:-1 113:-1 114:-1 115:-1 116:-1 117:-1 118:-1 119:-1 120:-1 121:-1 122:-1 123:-1 124:-1 125:-1 126:-1 127:-1 128:-1 129:-1 130:-1 131:-1 132:-1 133:-1 134:-1 135:-1 136:-1 137:-1 138:-1 139:-1 140:-1 141:-1 142:-1 143:-1 144:-1 145:-1 146:-1 147:-1 148:-1 149:-1 150:-1 151:-1 152:-1 153:-1 154:-1 155:-1 156:-1 157:-1 158:-1 159:-1 160:-1 161:-1 162:-1 163:-1 164:-1 165:-1 167:-1 168:-1 169:-1 170:-1 171:-1 172:-1 173:-1 174:-1 175:-1 176:-1 177:-1 178:-1 179:-1 180:-1 181:-1 182:-1 183:-1 184:-1 185:-1 186:-1 187:-1 188:-1 189:-1 190:-1 191:-1 192:-1 193:-1 194:-1 195:-1 196:-1 197:-1 198:-1 
128 1:-1 2:-1 3:-1 4:-1 5:-1 6:-1 7:-1 8:-1 9:-1 10:-1 11:-1 12:-1 13:-1 14:-1 15:-1 16:-1 17:-1 18:-1 19:-1 20:-1 21:-1 22:-1 23:-1 24:-1 25:-1 26:-1 27:-1 28:-1 29:-1 30:-1 31:-1 32:-1 33:-1 34:-1 35:-1 36:-1 37:-1 38:-1 39:-1 40:-1 41:-1 42:-1 43:-1 44:-1 45:-1 46:-1 47:-1 48:-1 49:-1 50:-1 51:-1 52:-1 53:-1 54:-1 55:-1 56:-0.666667 57:-1 58:-1 59:-1 60:-1 61:-1 62:-1 63:-1 64:-1 65:-1 66:-1 67:-1 68:-1 69:-1 70:-1 71:-1 72:-1 73:-1 74:-1 75:-1 76:-1 77:-1 78:-1 79:-1 80:-1 81:-1 82:-1 83:-1 84:-1 85:-1 86:-1 87:-1 88:-1 89:-1 90:-1 91:-1 92:-1 93:-1 94:-1 95:-1 96:-1 97:-1 98:-1 99:-1 100:-1 101:-1 102:-1 103:-1 104:-1 105:-1 106:-1 107:-1 108:-1 109:-1 110:-1 111:-1 112:-1 113:-1 114:-1 115:-1 116:-1 117:-1 118:-1 119:-0.948718 120:-1 121:-0.913043 122:-1 123:-1 124:-1 125:-1 126:-1 127:-1 128:-1 129:-1 130:-1 131:-1 132:-1 133:-1 134:-1 135:-1 136:-1 137:-1 138:-1 139:-1 140:-1 141:-1 142:-1 143:-1 144:-1 145:-1 146:-1 147:-1 148:-1 149:-1 150:-1 151:-1 152:-1 153:-1 154:-1 155:-1 156:-1 157:-1 158:-0.866667 159:-1 160:-1 161:-1 162:-1 163:-1 164:-1 165:-1 167:-1 168:-1 169:-1 170:-1 171:-1 172:-1 173:-1 174:-1 175:-1 176:-1 177:-1 178:-1 179:-0.333333 180:-1 181:-1 182:-1 183:-1 184:-1 185:-1 186:-1 187:-0.875 188:-1 189:-1 190:-1 191:-1 192:-1 193:-1 194:-1 195:-1 196:-1 197:-1 198:-0.714286 
90.77863691720901 1:-1 2:-1 3:-1 4:-1 5:-1 6:-1 7:-1 8:-1 9:-1 10:-1 11:-1 12:-1 13:-1 14:-1 15:-1 16:-1 17:-1 18:-1 19:-1 20:-1 21:-1 22:-1 23:-1 24:-1 25:-1 26:-1 27:-1 28:-1 29:-1 30:-1 31:-1 32:-1 33:-0.857143 34:-1 35:-1 36:-1 37:-1 38:-1 39:-1 40:-1 41:-1 42:-1 43:-1 44:-1 45:-1 46:-1 47:-1 48:-1 49:-1 50:-1 51:-1 52:-1 53:-1 54:-1 55:-1 56:-1 57:-1 58:-1 59:-1 60:-1 61:-1 62:-1 63:-0.73913 64:-1 65:-1 66:-1 67:-1 68:-1 69:-0.875 70:-1 71:-1 72:-1 73:-0.666667 74:-1 75:-1 76:-1 77:-1 78:-1 79:-1 80:-1 81:-1 82:-1 83:-1 84:-1 85:-1 86:-1 87:-1 88:-1 89:-1 90:-1 91:-1 92:-1 93:-1 94:-1 95:-1 96:-1 97:-1 98:-0.4 99:-1 100:-1 101:-1 102:-1 103:-1 104:-1 105:-1 106:-1 107:-1 108:-0.333333 109:-1 110:-1 111:-1 112:-1 113:-1 114:-1 115:-1 116:-1 117:-1 118:-1 119:-0.897436 120:-1 121:-0.73913 122:-1 123:-1 124:-1 125:-1 126:-0.333333 127:-1 128:-1 129:-1 130:-1 131:-1 132:-1 133:-1 134:-1 135:-1 136:-1 137:-1 138:-1 139:-1 140:-1 141:-1 142:-1 143:-1 144:-1 145:-1 146:-1 147:-1 148:-1 149:-1 150:-1 151:-1 152:-1 153:-1 154:-1 155:-1 156:-1 157:-1 158:-1 159:-1 160:-1 161:-1 162:-1 163:-1 164:-1 165:-1 167:-1 168:-1 169:-1 170:-1 171:-1 172:-1 173:-1 174:-1 175:-1 176:-1 177:-1 178:-1 179:-1 180:-1 181:-1 182:-1 183:-1 184:-1 185:-1 186:-1 187:-0.625 188:-1 189:-1 190:-1 191:-1 192:-1 193:-1 194:-1 195:-1 196:-1 197:-1 198:-0.885714 
111.7677747650521 1:-1 2:-1 3:-1 4:-1 5:-1 6:-1 7:-1 8:-1 9:-1 10:-1 11:-1 12:-1 13:-1 14:-1 15:-1 16:-1 17:-1 18:-1 19:-1 20:-1 21:-1 22:-1 23:-1 24:-1 25:-1 26:-1 27:-1 28:-1 29:-1 30:-1 31:-1 32:-1 33:-0.571429 34:-1 35:-1 36:-1 37:-1 38:-1 39:-1 40:-1 41:-1 42:-1 43:-1 44:-1 45:-1 46:-1 47:-1 48:-1 49:-1 50:-1 51:-1 52:-1 53:-1 54:-1 55:-1 56:-0.666667 57:-1 58:-1 59:-1 60:-1 61:-1 62:-1 63:-0.304348 64:-1 65:-1 66:-1 67:-1 68:-1 69:-1 70:-1 71:-1 72:-1 73:-0.666667 74:-1 75:-1 76:-0.714286 77:-1 78:-1 79:-1 80:-1 81:-1 82:-1 83:-1 84:-1 85:-1 86:-1 87:-1 88:-1 89:-1 90:-1 91:-1 92:-1 93:-1 94:-1 95:-1 96:-1 97:-1 98:-1 99:-1 100:-1 101:-1 102:-1 103:-1 104:-1 105:-1 106:-1 107:-1 108:-1 109:-1 110:-1 111:-1 112:-1 113:-1 114:-1 115:-1 116:-1 117:-1 118:-1 119:-0.641026 120:-1 121:-0.913043 122:-0.666667 123:-1 124:-1 125:-1 126:-1 127:-1 128:-1 129:-1 130:-1 131:-1 132:-1 133:-1 134:-1 135:-1 136:-1 137:-1 138:-1 139:-1 140:-1 141:-1 142:-1 143:-1 144:-1 145:-1 146:-1 147:-1 148:-1 149:-1 150:-1 151:-1 152:-1 153:-1 155:-1 156:-1 157:-1 158:-1 159:-1 160:-1 161:-1 162:-1 163:-1 164:-1 165:-1 167:-1 168:-1 169:-1 170:-1 171:-1 172:-1 173:-1 174:-1 175:-1 176:-1 177:-1 178:-1 179:-0.333333 180:-1 181:-1 182:-1 183:-1 184:-1 185:-1 186:-1 187:-0.125 188:-1 189:-1 190:-1 191:-1 192:-1 193:-1 194:-1 195:-1 196:-1 197:-1 198:-0.771429 
128 1:-1 2:-1 3:-1 4:-1 5:-1 6:-1 7:-1 8:-1 9:-1 10:-1 11:-1 12:-1 13:-1 14:-1 15:-1 16:-1 17:-1 18:-1 19:-1 20:-1 21:-1 22:-1 23:-1 24:-1 25:-1 26:-1 27:-1 28:-1 29:-1 30:-1 31:-1 32:-1 33:-0.714286 34:-1 35:-1 36:-1 37:-1 38:-1 39:-1 40:-1 41:-1 42:-1 43:-1 44:-0.846154 45:-1 46:-1 47:-1 48:-1 49:-1 50:-1 51:-1 52:-1 53:-1 54:-1 55:-1 56:-1 57:-1 58:-1 59:-1 60:-1 61:-1 62:-1 63:-0.913043 64:-1 65:-1 66:-1 67:-1 68:-1 69:-1 70:-1 71:-1 72:-1 73:-0.666667 74:-1 75:-1 76:-0.714286 77:-1 78:-1 79:-1 80:-1 81:-1 82:-1 83:-1 84:-1 85:-1 86:-1 87:-1 88:-1 89:-1 90:-1 91:-1 92:-1 93:-1 94:-1 95:-1 96:-1 97:-1 98:-1 99:-1 100:-1 101:-1 102:-1 103:-1 104:-1 105:-1 106:-1 107:-1 108:-1 109:-1 110:-1 111:-1 112:-1 113:-1 114:-1 115:-1 116:-1 117:-1 118:-1 119:-0.846154 120:-1 121:-1 122:-0.5 123:-1 124:-1 125:-0.931034 126:-1 127:-1 128:-1 129:-1 130:-1 131:-1 132:-1 133:-1 134:-1 135:-1 136:-1 137:-1 138:-1 139:-1 140:-1 141:-1 142:-1 143:-1 144:-1 145:-1 146:-1 147:-1 148:-1 149:-1 150:-1 151:-1 152:-1 153:-1 155:-1 156:-1 157:-1 158:-1 159:-1 160:-1 161:-1 162:-1 163:-1 164:-1 165:-1 167:-1 168:-1 169:-1 170:-1 171:-1 172:-1 173:-1 174:-1 175:-1 176:-1 177:-1 178:-1 179:-1 180:-1 181:-1 182:-1 183:-1 184:-1 185:-1 186:-1 187:-0.875 188:-1 189:-1 190:-1 191:-1 192:-1 193:-1 194:-1 195:-1 196:-1 197:-1 198:-1 
128 1:-1 2:-1 3:-1 4:-1 5:-1 6:-1 7:-1 8:-1 9:-1 10:-1 11:-1 12:-1 13:-1 14:-1 15:-1 16:-1 17:-1 18:-1 19:-1 20:-1 21:-1 22:-1 23:-1 24:-1 25:-1 26:-1 27:-1 28:-1 29:-1 30:-1 31:-1 32:-1 33:-0.714286 34:-1 35:-1 36:-1 37:-1 38:-1 39:-1 40:-1 41:-1 42:-1 43:-1 44:-1 45:-1 46:-1 47:-1 48:-1 49:-1 50:-1 51:-1 52:-1 53:-1 54:-1 55:-1 56:-1 57:-1 58:-1 59:-1 60:-1 61:-1 62:-1 63:-0.913043 64:-1 65:-1 66:-1 67:-1 68:-1 69:-1 70:-1 71:-1 72:-1 73:-1 74:-1 75:-1 76:-0.714286 77:-1 78:-1 79:-1 80:-1 81:-1 82:-1 83:-1 84:-1 85:-1 86:-1 87:-1 88:-1 89:-1 90:-1 91:-1 92:-1 93:-1 94:-1 95:-1 96:-1 97:-1 98:-1 99:-1 100:-1 101:-1 102:-1 103:-1 104:-1 105:-1 106:-1 107:-1 108:-1 109:-1 110:-1 111:-1 112:-0.666667 113:-1 114:-1 115:-1 116:-1 117:-1 118:-1 119:-0.948718 120:-1 121:-1 122:-0.833333 123:-1 124:-1 125:-1 126:-1 127:-1 128:-1 129:-1 130:-1 131:-1 132:-1 133:-1 134:-1 135:-1 136:-1 137:-1 138:-1 139:-1 140:-1 141:-1 142:-1 143:-1 144:-1 145:-1 146:-1 147:-0.666667 148:-1 149:-1 150:-1 151:-1 152:-1 153:-1 154:-1 155:-1 156:-1 157:-1 158:-0.733333 159:-1 160:-1 161:-1 162:-1 163:-1 164:-1 165:-1 167:-1 168:-1 169:-1 170:-1 171:-1 172:-1 173:-1 174:-1 175:-1 176:-1 177:-1 178:-1 179:-1 180:-1 181:-1 182:-1 183:-1 184:-1 185:-1 186:-1 187:-1 188:-1 189:-1 190:-1 191:-1 192:-1 193:-1 194:-1 195:-1 196:-1 197:-1 198:-1 
128 1:-1 2:-1 3:-1 4:-1 5:-1 6:-1 7:-1 8:-1 9:-1 10:-1 11:-1 12:-1 13:-1 14:-1 15:-1 16:-1 17:-1 18:-1 19:-1 20:-1 21:-1 22:-1 23:-1 24:-1 25:-1 26:-1 27:-1 28:-1 29:-1 30:-1 31:-1 32:-1 33:-1 34:-1 35:-1 36:-1 37:-1 38:-1 39:-1 40:-1 41:-1 42:-1 43:-1 44:-0.846154 45:-1 46:-1 47:-1 48:-1 49:-1 50:-1 51:-1 52:-1 53:-1 54:-1 55:-1 56:-1 57:-1 58:-1 59:-1 60:-1 61:-1 62:-1 63:-1 64:-1 65:-1 66:-1 67:-1 68:-1 69:-1 70:-1 71:-1 72:-1 73:-1 74:-1 75:-1 76:-1 77:-1 78:-1 79:-1 80:-1 81:-1 82:-1 83:-1 84:-1 85:-1 86:-1 87:-1 88:-1 89:-1 90:-1 91:-1 92:-1 93:-1 94:-1 95:-1 96:-1 97:-1 98:-1 99:-1 100:-1 101:-1 102:-1 103:-1 104:-1 105:-1 106:-1 107:-1 108:-1 109:-1 110:-1 111:-1 112:-1 113:-1 114:-1 115:-1 116:-1 117:-1 118:-1 119:-1 120:-1 121:-0.913043 122:-0.666667 123:-1 124:-1 125:-1 126:-1 127:-1 128:-1 129:-1 130:-1 131:-1 132:-1 133:-1 134:-1 135:-1 136:-1 137:-1 138:-1 139:-1 140:-1 141:-1 142:-1 143:-1 144:-1 145:-1 146:-1 147:-1 148:-1 149:-1 150:-1 151:-1 152:-1 153:-1 154:-1 155:-1 156:-1 157:-1 158:-1 159:-1 160:-1 161:-1 162:-1 163:-1 164:-1 165:-1 167:-1 168:-1 169:-1 170:-1 171:-1 172:-1 173:-1 174:-1 175:-1 176:-1 177:-1 178:-1 179:-1 180:-1 181:-1 182:-1 183:-1 184:-1 185:-1 186:-1 187:-0.75 188:-1 189:-1 190:-1 191:-1 192:-1 193:-1 194:-1 195:-1 196:-1 197:-1 198:-0.828571 
128 1:-1 2:-1 3:-1 4:-1 5:-1 6:-1 7:-1 8:-1 9:-1 10:-1 11:-1 12:-1 13:-1 14:-1 15:-1 16:-1 17:-1 18:-1 19:-1 20:-1 21:-1 22:-1 23:-1 24:-1 25:-1 26:-1 27:-1 28:-1 29:-1 30:-1 31:-1 32:-1 33:-1 34:-1 35:-1 36:-1 37:-1 38:-1 39:-1 40:-1 41:-1 42:-1 43:-1 44:-1 45:-1 46:-1 47:-1 48:-1 49:-1 50:-1 51:-1 52:-1 53:-1 54:-1 55:-1 56:-1 57:-1 58:-1 59:-1 60:-1 61:-1 62:-1 63:-1 64:-1 65:-1 66:-1 67:-1 68:-1 69:-0.9375 70:-1 71:-1 72:-1 73:-1 74:-1 75:-1 76:-1 77:-1 78:-1 79:-1 80:-1 81:-1 82:-1 83:-1 84:-1 85:-1 86:-1 87:-1 88:-1 89:-1 90:-1 91:-1 92:-1 93:-1 94:-1 95:-1 96:-1 97:-1 98:-0.8 99:-1 100:-1 101:-1 102:-1 103:-1 104:-1 105:-1 106:-1 107:-1 108:-0.333333 109:-1 110:-1 111:-1 112:-1 113:-1 114:-1 115:-1 116:-1 117:-1 118:-1 119:-1 120:-1 121:-0.73913 122:-0.833333 123:-1 124:-1 125:-1 126:-0.333333 127:-1 128:-1 129:-1 130:-1 131:-1 132:-1 133:-1 134:-1 135:-1 136:-1 137:-1 138:-1 139:-1 140:-1 141:-1 142:-1 143:-1 144:-1 145:-1 146:-1 147:-1 148:-1 149:-1 150:-1 151:-1 152:-1 153:-1 154:-1 155:-1 156:-1 157:-1 158:-1 159:-1 160:-1 161:-1 162:-1 163:-1 164:-1 165:-1 167:-1 168:-1 169:-1 170:-1 171:-1 172:-1 173:-1 174:-1 175:-1 176:-1 177:-1 178:-1 179:-1 180:-1 181:-1 182:-1 183:-1 184:-1 185:-1 186:-1 187:-0.75 188:-1 189:-1 190:-1 191:-1 192:-1 193:-1 194:-1 195:-1 196:-1 197:-1 198:-0.714286 
128 1:-1 2:-1 3:-1 4:-1 5:-1 6:-1 7:-1 8:-1 9:-1 10:-1 11:-1 12:-1 13:-1 14:-1 15:-1 16:-1 17:-1 18:-1 19:-1 20:-1 21:-1 22:-1 23:-1 24:-1 25:-1 26:-1 27:-1 28:-1 29:-1 30:-1 31:-1 32:-1 33:-0.857143 34:-1 35:-1 36:-1 37:-1 38:-1 39:-1 40:-1 41:-1 42:-1 43:-1 44:-1 45:-1 46:-1 47:-1 48:-1 49:-1 50:-1 51:-1 52:-1 53:-1 54:-1 55:-1 56:-1 57:-1 58:-1 59:-1 60:-1 61:-1 62:-1 63:-1 64:-1 65:-1 66:-1 67:-1 68:-1 69:-0.875 70:-1 71:-1 72:-1 73:-0.666667 74:-1 75:-1 76:-1 77:-1 78:-1 79:-1 80:-1 81:-1 82:-0.666667 83:-1 84:-1 85:-1 86:-1 87:-1 88:-1 89:-1 90:-1 91:-1 92:-1 93:-1 94:-1 95:-1 96:-1 97:-1 98:-1 99:-1 100:-1 101:-1 102:-1 103:-1 104:-1 105:-1 106:-1 107:-1 108:-0.333333 109:-1 110:-1 111:-1 112:-1 113:-1 114:-1 115:-1 116:-1 117:-1 118:-1 119:-0.948718 120:-1 121:-0.826087 122:-1 123:-1 124:-1 125:-1 126:-0.333333 127:-1 128:-1 129:-1 130:-1 131:-1 132:-1 133:-1 134:-1 135:-1 136:-1 137:-1 138:-1 139:-1 140:-1 141:-1 142:-1 143:-1 144:-1 145:-1 146:-1 147:-1 148:-1 149:-1 150:-1 151:-1 152:-1 153:-1 154:-1 155:-1 156:-1 157:-1 158:-1 159:-1 160:-1 161:-1 162:-1 163:-1 164:-1 165:-1 167:-1 168:-1 169:-1 170:-1 171:-1 172:-1 173:-1 174:-1 175:-1 176:-1 177:-1 178:-1 179:-1 180:-1 181:-1 182:-1 183:-1 184:-1 185:-1 186:-1 187:-1 188:-1 189:-1 190:-1 191:-1 192:-1 193:-1 195:-1 196:-1 197:-1 198:-0.771429 
16.58269013497515 1:-1 2:-1 3:-1 4:-1 5:-1 6:-1 7:-1 8:-1 9:-1 10:-1 11:-1 12:-1 13:-1 14:-1 15:-1 16:-1 17:-1 18:-1 19:-1 20:-1 21:-1 22:-1 23:-1 24:-1 25:-1 26:-1 27:-1 28:-1 29:-1 30:-1 31:-1 32:-1 33:-1 34:-1 35:-1 36:-1 37:-1 38:-1 39:-1 40:-1 41:-1 42:-1 43:-1 44:-1 45:-1 46:-1 47:-1 48:-1 49:-1 50:-1 51:-1 52:-1 53:-1 54:-1 55:-1 56:-1 57:-1 58:-1 59:-1 60:-1 61:-1 62:-1 63:-1 64:-1 65:-1 66:-1 67:-1 68:-1 69:-1 70:-1 71:-1 72:-1 73:-1 74:-1 75:-1 76:-1 77:-1 78:-1 79:-1 80:-1 81:-1 82:-1 83:-1 84:-1 85:0.333333 86:-1 87:-1 88:-1 89:-1 90:-1 91:-1 92:-1 93:-1 94:-1 95:-1 96:-1 97:-1 98:-1 99:-1 100:-1 101:-1 102:-1 103:-1 104:-1 105:-1 106:-1 107:-1 108:-1 109:-1 110:-1 111:-1 112:-1 113:-1 114:-1 115:-1 116:-1 117:-1 118:-1 119:-1 120:-1 121:-1 122:-1 123:-1 124:-1 125:-1 126:-1 127:-1 128:-1 129:1 130:-1 131:-1 132:-1 133:-1 134:-1 135:-1 136:-1 137:-1 138:-1 139:-1 140:-1 141:-1 142:-1 143:-1 144:-1 145:-1 146:-1 147:-1 148:-1 149:-1 150:-1 151:-1 152:-1 153:-1 154:-1 155:-1 156:-1 157:-1 158:-1 159:-1 160:-1 161:-1 162:-1 163:-1 164:-1 165:-1 167:-1 168:-1 169:-1 170:-1 171:-1 172:-1 173:-1 174:-1 175:-1 176:-1 177:-1 178:-1 179:-1 180:-1 181:-1 182:-1 183:-1 184:-1 185:-1 186:-1 187:-1 188:-1 189:-1 190:-1 191:-1 192:-1 193:-1 194:-1 195:-1 196:-1 197:-1 198:-1 
128 1:-1 2:-1 3:-1 4:-1 5:-1 6:-1 7:-1 8:-1 9:-1 10:-1 11:-0.833333 12:-1 13:-1 14:-1 15:-1 16:-1 17:-1 18:-1 19:-1 20:-1 21:-1 22:-1 23:-1 24:-1 25:-1 26:-1 27:-1 28:-1 29:-1 30:-1 31:-1 32:-1 33:-1 34:-1 35:-1 36:-1 37:-1 38:-1 39:-1 40:-1 41:-1 42:-1 43:-1 44:-0.846154 45:-1 46:-1 47:-1 48:-1 49:-1 50:-1 51:-1 52:-1 53:-1 54:-1 55:-1 56:-1 57:-0.75 58:-1 59:-1 60:-1 61:-1 62:-1 63:-1 64:-1 65:-1 66:-1 67:-1 68:-1 69:-1 70:-1 71:-1 72:-1 73:-1 74:-1 75:-1 76:-1 77:-1 78:-1 79:-1 80:-1 81:-1 82:-1 83:-1 84:-1 85:-1 86:-1 87:-1 88:-1 89:-1 90:-1 91:-1 92:-1 93:-1 94:-1 95:-1 96:-1 97:-1 98:-1 99:-1 100:-1 101:-1 102:-1 103:-1 104:-1 105:-1 106:-1 107:-1 108:-1 109:-1 110:-1 111:-1 112:-1 113:-1 114:-1 115:-1 116:-1 117:-1 118:-1 119:-1 120:-1 121:-0.913043 122:-1 123:-1 124:-1 125:-1 126:-1 127:-1 128:-1 129:-1 130:-1 131:-1 132:-1 133:-1 134:-1 135:-1 136:-1 137:-1 138:-1 139:-1 140:-1 141:-1 142:-1 143:-1 144:-1 145:-1 146:-1 147:-1 148:-1 149:-1 150:-1 151:-1 152:-1 153:-1 154:-1 155:-1 156:-1 157:-1 158:-1 159:-1 160:-1 161:-1 162:-1 163:-1 164:-1 165:-1 167:-1 168:-1 169:-1 170:-1 171:-1 172:-1 173:-1 174:-1 175:-1 176:-1 177:-1 178:-1 179:-1 180:-1 181:-1 182:-1 183:-1 184:-1 185:-1 186:-1 187:-0.75 188:-1 189:-1 190:-1 191:-1 192:-1 193:-1 194:-1 195:-1 196:-1 197:-1 198:-0.542857 
128 1:-1 2:-1 3:-1 4:-1 5:-1 6:-1 7:-1 8:-1 9:-1 10:-1 11:-0.833333 12:-1 13:-1 14:-1 15:-1 16:-1 17:-1 18:-1 19:-1 20:-1 21:-1 22:-1 23:-1 24:-1 25:-1 26:-1 27:-1 28:-1 29:-1 30:-1 31:-1 32:-1 33:-0.857143 34:-1 35:-1 36:-1 37:-1 38:-1 39:-1 40:-1 41:-1 42:-1 43:-1 44:-1 45:-1 46:-1 47:-1 48:-1 49:-1 50:-1 51:-1 52:-1 53:-0.666667 54:-1 55:-1 56:-1 57:-1 58:-1 59:-1 60:-1 61:-1 62:-1 63:-0.913043 64:-1 65:-1 66:-1 67:-1 68:-1 69:-1 70:-1 71:-1 72:-1 73:-1 74:-1 75:-1 76:-0.714286 77:-1 78:-1 79:-1 80:-1 81:-1 82:-1 83:-1 84:-1 85:-1 86:-1 87:-1 88:-1 89:-1 90:-1 91:-1 92:-1 93:-1 94:-1 95:-1 96:-1 97:-1 98:-1 99:-1 100:-1 101:-1 102:-1 103:-1 104:-1 105:-1 106:-1 107:-1 108:-1 109:-1 110:-1 111:-1 112:-1 113:-1 114:-1 115:-1 116:-1 117:-1 118:-1 119:-0.948718 120:-1 121:-1 122:-0.833333 123:-1 124:-1 125:-1 126:-1 127:-1 128:-1 129:-1 130:-1 131:-1 132:-1 133:-1 134:-1 135:-1 136:-1 137:-1 138:-1 139:-1 140:-1 141:-1 142:-1 143:-1 144:-1 145:-1 146:-1 147:-1 148:-1 149:-1 150:-1 151:-1 152:-1 153:-1 154:-1 155:-1 156:-1 157:-1 158:-1 159:-1 160:-1 161:-1 162:-1 163:-1 164:-1 165:-1 167:-1 168:-1 169:-1 170:-1 171:-1 172:-1 173:-1 174:-1 175:-1 176:-1 177:-1 178:-1 179:-1 180:-1 181:-1 182:-1 183:-1 184:-1 185:-1 186:-1 187:-0.875 188:-1 189:-1 190:-1 191:-1 192:-1 193:-1 194:-1 195:-1 196:-1 197:-1 198:-0.771429 
128 1:-1 2:-1 3:-1 4:-1 5:-1 6:-1 7:-0.666667 8:-1 9:-1 10:-1 11:-1 12:-1 13:-1 14:-1 15:-1 16:-1 17:-1 18:-1 19:-1 20:-1 21:-1 22:-1 23:-1 24:-1 25:-1 26:-1 27:-1 28:-1 29:-1 30:-1 31:-1 32:-1 33:-0.857143 34:-1 35:-1 36:-1 37:-1 38:-1 39:-1 40:-1 41:-1 42:-1 43:-1 44:-1 45:-1 46:-1 47:-1 48:-1 49:-1 50:-1 51:-1 52:-1 53:-1 54:-1 55:-1 56:-1 57:-1 58:-1 59:-1 60:-1 61:-1 62:-1 63:-0.913043 64:-1 65:-1 66:-1 67:-1 68:-1 69:-1 70:-1 71:-1 72:-1 73:-0.666667 74:-1 75:-1 76:-1 77:-1 78:-1 79:-1 80:-1 81:-1 82:-1 83:-1 84:-1 85:-1 86:-1 87:-1 88:-1 89:-1 90:-1 91:-1 92:-1 93:-1 94:-1 95:-1 96:-1 97:-1 98:-1 99:-1 100:-1 101:-1 102:-1 103:-1 104:-1 105:-1 106:-1 107:-1 108:-1 109:-1 110:-1 111:-1 112:-1 113:-1 114:-1 115:-1 116:-1 117:-1 118:-1 119:-1 120:-1 121:-0.913043 122:-1 123:-1 124:-1 125:-1 126:-1 127:-1 128:-1 129:-1 130:-1 131:-1 132:-1 133:-1 134:-1 135:-1 136:-1 137:-1 138:-1 139:-1 140:-1 141:-1 142:-1 143:-1 144:-1 145:-1 146:-1 147:-1 148:-1 149:-1 150:-1 151:-1 152:-1 153:-1 154:-1 155:-1 156:-1 157:-1 158:-1 159:-1 160:-1 161:-1 162:-0.666667 163:-1 164:-1 165:-1 167:-1 168:-1 169:-1 170:-1 171:-1 172:-1 173:-1 174:-1 175:-1 176:-1 177:-1 178:-1 179:-1 180:-1 181:-1 182:-1 183:-1 184:-1 185:-1 186:-1 187:-1 188:-1 189:-1 190:-1 191:-1 192:-1 193:-1 194:-1 195:-1 196:-1 197:-1 198:-0.771429 
115.7673738212545 1:-1 2:-1 3:-1 5:-1 6:-1 7:-1 8:-1 9:-1 10:-1 11:-1 12:-1 13:-1 14:-1 15:-1 16:-1 17:-1 18:-1 19:-1 20:-1 21:-1 22:-1 23:-1 24:-1 25:-1 26:-1 27:-1 28:-1 29:-1 30:-1 32:-1 33:-0.714286 34:-1 35:-1 36:-1 37:-1 38:-1 39:-1 40:-1 41:-1 42:-1 43:-1 44:-0.846154 45:-1 46:-1 47:-1 48:-1 49:-1 50:-1 51:-1 52:-1 53:-1 54:-1 55:-1 56:-1 57:-1 58:-1 59:-1 60:-1 61:-1 62:-1 63:-0.652174 64:-1 65:-1 66:-1 67:-1 68:-1 69:-1 70:-1 71:-1 72:-1 73:-0.333333 74:-1 75:-1 76:-1 77:-1 78:-1 79:-1 80:-1 81:-1 82:-1 83:-1 84:-1 85:-1 86:-1 87:-1 88:-1 89:-1 90:-1 91:-1 92:-1 93:-1 94:-1 95:-1 96:-1 97:-1 98:-1 99:-1 100:-1 101:-1 102:-1 103:-1 104:-1 105:-1 106:-1 107:-1 108:-1 109:-1 110:-1 111:-1 112:-1 113:-1 114:-1 115:-1 116:-1 117:-1 118:-1 119:-0.897436 120:-1 121:-0.565217 122:-1 123:-1 124:-1 125:-1 126:-1 127:-1 128:-1 129:-1 130:-1 131:-1 132:-1 133:-1 134:-1 135:-1 136:-1 137:-1 138:-1 139:-1 140:-1 141:-1 142:-1 143:-1 144:-1 145:-1 146:-1 147:-1 148:-1 149:-1 150:-1 151:-1 152:-1 153:-1 154:-1 155:-1 156:-1 157:-1 158:-1 159:-1 160:-1 161:-1 162:-1 164:-1 165:-1 167:-1 168:-1 169:-1 171:-1 172:-1 173:-1 174:-1 175:-1 176:-1 177:-1 178:-1 179:-1 180:-1 181:-1 182:-1 183:-1 184:-1 185:-1 186:-1 187:-0.25 188:-1 189:-1 190:-1 191:-1 192:-1 193:-1 194:-1 195:-1 196:-1 197:-1 198:-0.142857 
47.07601992409792 1:-1 2:-1 3:-1 4:-1 5:-1 6:-1 7:-1 8:-1 9:-1 10:-1 11:-1 12:-1 13:-1 14:-1 15:-1 16:-1 17:-1 18:-1 19:-1 20:-1 21:-1 22:-1 23:-1 24:-1 25:-1 26:-1 27:-1 28:-1 29:-1 30:-1 31:-1 32:-1 33:-0.428571 34:-1 35:-1 36:-1 37:-1 38:-1 39:-1 40:-1 41:-1 42:-1 43:-1 44:-0.846154 45:-1 46:-1 47:-1 48:-1 49:-1 50:-1 51:-1 52:-1 53:-1 54:-1 55:-1 56:-1 57:-1 58:-1 59:-1 60:-1 61:-1 62:-1 63:-0.217391 64:-1 65:-1 66:-1 67:-1 68:-1 69:-1 70:-1 71:-1 72:-1 73:-0.333333 74:-1 75:-1 76:-0.714286 77:-1 78:-1 79:-1 80:-1 81:-1 82:-1 83:-1 84:-1 85:-1 86:-1 87:-1 88:-1 89:-1 90:-1 91:-1 92:-1 93:-1 94:-1 95:-1 96:-1 97:-1 98:-1 99:-1 100:-1 101:-1 102:-1 103:-1 104:-1 105:-1 106:-1 107:-1 108:-1 109:-1 110:-1 111:-1 112:-1 113:-1 114:-1 115:-1 116:-1 117:-1 118:-1 119:-0.641026 120:-1 121:-0.913043 122:-0.833333 123:-1 124:-1 125:-1 126:-1 127:-1 128:-1 129:-1 130:-1 131:-1 132:-1 133:-1 134:-1 135:-1 136:-1 137:-1 138:-1 139:-1 140:-1 141:-1 142:-1 143:-1 144:-1 145:-1 146:-1 147:-1 148:-1 149:-1 150:-1 151:-1 152:-1 153:-1 154:-0.5 155:-1 156:-1 157:-1 158:-0.866667 159:-1 160:-1 161:-1 162:-1 163:-1 164:-1 165:-1 167:-1 168:-1 169:-1 170:-1 171:-1 172:-1 173:-1 174:-1 175:-1 176:-1 177:-1 178:-1 179:-1 180:-1 181:-1 182:-1 183:-1 184:-1 185:-1 186:-1 187:-0.25 188:-1 189:-1 190:-1 191:-1 192:-1 193:-1 194:-1 195:-1 196:-1 197:-1 198:-0.657143 
128 1:-1 2:-1 3:-1 4:-1 5:-1 6:-1 7:-1 8:-1 9:-1 10:-1 11:-1 12:-1 13:-1 14:-1 15:-1 16:-1 17:-1 18:-1 19:-1 20:-1 21:-1 22:-1 23:-1 24:-1 25:-1 26:-1 27:-1 28:-1 29:-1 30:-1 31:-1 32:-1 33:-1 34:-1 35:-1 36:-1 37:-1 38:-1 39:-1 40:-1 41:-1 42:-1 43:-1 44:-1 45:-1 46:-1 47:-1 48:-1 49:-1 50:-1 51:-1 52:-1 53:-1 54:-1 55:-1 56:-1 57:-1 58:-1 59:-1 60:-1 61:-1 62:-1 63:-0.73913 64:-1 65:-1 66:-1 67:-1 68:-1 69:-1 70:-1 71:-1 72:-1 73:-1 74:-1 75:-1 76:-1 77:-1 78:-1 79:-1 80:-1 81:-1 82:-1 83:-1 84:-1 85:-1 86:-1 87:-1 88:-1 89:-1 90:-1 91:-1 92:-1 93:-1 94:-1 95:-1 96:-1 97:-1 98:-1 99:-1 100:-1 101:-1 102:-1 103:-1 104:-1 105:-1 106:-1 107:-1 108:-1 109:-1 110:-1 111:-1 112:-1 113:-1 114:-1 115:-1 116:-1 117:-1 118:-1 119:-0.846154 120:-1 121:-1 122:-0.833333 123:-1 124:-1 125:-1 126:-1 127:-1 128:-1 129:-1 130:-1 131:-1 132:-1 133:-1 134:-1 135:-1 136:-1 137:-1 138:-1 139:-1 140:-1 141:-1 142:-1 143:-1 144:-1 145:-1 146:-1 147:-1 148:-1 149:-1 150:-1 151:-1 152:-1 153:-1 154:-1 155:-1 156:-1 157:-1 158:-1 159:-1 160:-1 161:-1 162:-1 163:-1 164:-1 165:-1 167:-1 168:-1 169:-1 170:-1 171:-1 172:-1 173:-1 174:-1 175:-1 176:-1 177:-1 178:-1 179:-1 180:-1 181:-1 182:-1 183:-1 184:-1 185:-1 186:-1 187:-0.375 188:-1 189:-1 190:-1 191:-1 192:-1 193:-1 194:-1 195:-1 196:-1 197:-1 198:-0.657143 
87.70623264053019 1:-1 2:-1 3:-1 4:-1 5:-1 6:-1 7:-1 8:-1 9:-1 10:-1 11:-1 12:-1 13:-1 14:-1 15:-1 16:-1 17:-1 18:-1 19:-1 20:-1 21:-1 22:-1 23:-1 24:-1 25:-1 26:-1 27:-1 28:-1 29:-1 30:-1 31:-1 32:-1 33:-1 34:-1 35:-1 36:-1 37:-1 38:-1 39:-1 40:-1 41:-1 42:-1 43:-1 44:-1 45:-1 46:-1 47:-1 48:-1 49:-1 50:-1 51:-1 52:-1 53:-1 54:-1 55:-1 56:-1 57:-1 58:-1 59:-1 60:-1 61:-1 62:-1 63:-1 64:-1 65:-1 66:-1 67:-1 68:-1 69:-1 70:-1 71:-1 72:-1 73:-1 74:-1 75:-1 76:-1 77:-1 78:-1 79:-1 80:-1 81:-1 82:-1 83:-1 84:-1 85:-1 86:-1 87:-1 88:-1 89:-1 90:-1 91:-1 92:-1 93:-1 94:-1 95:-1 96:-0.2 97:-1 98:-1 99:-1 100:-1 101:-1 102:-1 103:-1 104:-1 105:-1 106:-1 107:-1 108:-1 109:-1 110:-1 111:-1 112:-1 113:-1 114:-1 115:-1 116:-1 117:-1 118:-1 119:-1 120:-1 121:-1 122:-0.833333 123:-1 124:-1 125:-1 126:-1 127:-1 128:-1 129:-1 130:-1 131:-1 132:-1 133:-1 134:-1 135:-1 136:-1 137:-1 138:-1 139:-1 140:-1 141:-1 142:-1 143:-1 144:-0.789474 145:-1 146:-1 147:-1 148:-1 149:-1 150:-1 151:-1 152:-1 153:-1 154:-1 155:-1 156:-1 157:-1 158:-1 159:-1 160:-1 161:-1 162:-1 163:-1 164:-1 165:-1 167:-1 168:-1 169:-1 170:-1 171:-1 172:-1 173:-1 174:-1 175:-1 176:-1 177:-1 178:-1 179:-1 180:-1 181:-1 182:-1 183:-1 184:-1 185:-1 186:-1 187:-0.375 188:-1 189:-1 190:-1 191:-1 192:-1 193:-1 194:-1 195:-1 196:-1 197:-1 198:-0.657143 
128 1:-1 2:-1 3:-1 4:-1 5:-1 6:-1 7:-0.666667 8:-1 9:-1 10:-1 11:-0.833333 12:-1 13:-1 14:-1 15:-1 16:-1 17:-1 18:-1 19:-1 20:-1 21:-1 22:-1 23:-1 24:-1 25:-1 26:-1 27:-1 28:-1 29:-1 30:-1 31:-1 32:-1 33:-1 34:-1 35:-1 36:-1 37:-1 38:-1 39:-1 40:-1 41:-1 42:-1 43:-1 44:-1 45:-1 46:-1 47:-1 48:-1 49:-1 50:-1 51:-1 52:-1 53:-1 54:-1 55:-1 56:-1 57:-0.75 58:-1 59:-1 60:-1 61:-1 62:-1 63:-1 64:-1 65:-1 66:-1 67:-1 68:-1 69:-1 70:-1 71:-1 72:-1 73:-1 74:-1 75:-1 76:-0.714286 77:-1 78:-1 79:-1 80:-1 81:-1 82:-1 83:-1 84:-1 85:-1 86:-1 87:-1 88:-1 89:-1 90:-1 91:-1 92:-1 93:-1 94:-1 95:-1 96:-1 97:-1 98:-1 99:-1 100:-1 101:-1 102:-1 103:-1 104:-1 105:-1 106:-1 107:-1 108:-1 109:-1 110:-1 111:-1 112:-1 113:-1 114:-1 115:-1 116:-1 117:-1 118:-1 119:-0.897436 120:-1 121:-0.913043 122:-1 123:-1 124:-1 125:-1 126:-1 127:-1 128:-1 129:-1 130:-1 131:-1 132:-1 133:-1 134:-1 135:-1 136:-1 137:-1 138:-1 139:-1 140:-1 141:-1 142:-1 143:-1 144:-1 145:-1 146:-1 147:-1 148:-1 149:-1 150:-1 151:-1 152:-1 153:-1 154:-1 155:-1 156:-1 157:-1 158:-1 159:-1 160:-1 161:-1 162:-0.666667 163:-1 164:-1 165:-1 167:-1 168:-1 169:-1 170:-1 171:-1 172:-1 173:-1 174:-1 175:-1 176:-1 177:-1 178:-1 179:-1 180:-1 181:-1 182:-1 183:-1 184:-1 185:-1 186:-1 187:-0.875 188:-1 189:-1 190:-1 191:-1 192:-1 193:-1 194:-1 195:-1 196:-1 197:-1 198:-0.828571 
128 1:-1 2:-1 3:-1 4:-1 5:-1 6:-1 7:-1 8:-1 9:-1 10:-1 11:-1 12:-1 13:-1 14:-1 15:-1 16:-1 17:-1 18:-1 19:-1 20:-1 21:-1 22:-1 23:-1 24:-1 25:-1 26:-1 27:-1 28:-1 29:-1 30:-1 31:-1 32:-1 33:-1 34:-1 35:-1 36:-1 37:-1 38:-1 39:-1 40:-1 41:-1 42:-1 43:-1 44:-1 45:-1 46:-1 47:-1 48:-1 49:-1 50:-1 51:-1 52:-1 53:-1 54:-1 55:-1 56:-1 57:-1 58:-1 59:-1 60:-1 61:-1 62:-1 63:-1 64:-1 65:-1 66:-1 67:-1 68:-1 69:-0.875 70:-1 71:-1 72:-1 73:-1 74:-1 75:-1 76:-1 77:-1 78:-1 79:-1 80:-1 81:-1 82:-1 83:-1 84:-1 85:-1 86:-1 87:-1 88:-1 89:-1 90:-1 91:-1 92:-1 93:-1 94:-1 95:-1 96:-1 97:-1 98:-1 99:-1 100:-1 101:-1 102:-1 103:-1 104:-1 105:-1 106:-1 107:-1 108:-1 109:-1 110:-1 111:-1 112:-1 113:-1 114:-1 115:-1 116:-1 117:-1 118:-1 119:-1 120:-1 121:-0.652174 122:-1 123:-1 124:-1 125:-1 126:-1 127:-1 128:-1 129:-1 130:-1 131:-1 132:-1 133:-1 134:-1 135:-1 136:-1 137:-1 138:-1 139:-1 140:-1 141:-1 142:-1 143:-1 144:-1 145:-1 146:-1 147:-1 148:-1 149:-1 150:-1 151:-1 152:-1 153:-1 154:-1 155:-1 156:-1 157:-1 158:-1 159:-1 160:-1 161:-1 162:-1 163:-1 164:-1 165:-1 167:-1 168:-1 169:-1 170:-1 171:-1 172:-1 173:-1 174:-1 175:-1 176:-1 177:-1 178:-1 179:-1 180:-1 181:-1 182:-1 183:-1 184:-1 185:-1 186:-1 187:-1 188:-1 189:-1 190:-1 191:-1 192:-1 193:-1 194:-1 195:-1 196:-1 197:-1 198:-0.2 
128 1:-1 2:-1 3:-1 4:-1 5:-1 6:-1 7:-1 8:-1 9:-1 10:-1 11:-1 12:-1 13:-1 14:-1 15:-1 16:-1 17:-1 18:-1 19:-1 20:-1 21:-1 22:-1 23:-1 24:-1 25:-1 26:-1 27:-1 28:-1 29:-1 30:-1 31:-1 32:-1 33:-0.857143 34:-1 35:-1 36:-1 37:-1 38:-1 39:-1 40:-1 41:-1 42:-1 43:-1 44:-1 45:-1 46:-1 47:-1 48:-1 49:-1 50:-1 51:-1 52:-1 53:-1 54:-1 55:-1 56:-0.666667 57:-1 58:-1 59:-1 60:-1 61:-1 62:-1 63:-0.826087 64:-1 65:-1 66:-1 67:-1 68:-1 69:-1 70:-1 71:-1 72:-1 73:-1 74:-1 75:-1 76:-1 77:-1 78:-1 79:-1 80:-1 81:-1 82:-1 83:-1 84:-1 85:-1 86:-1 87:-1 88:-1 89:-1 90:-1 91:-1 92:-1 93:-1 94:-1 95:-1 96:-1 97:-1 98:-0.8 99:-1 100:-1 101:-1 102:-1 103:-1 104:-1 105:-1 106:-1 107:-1 108:-1 109:-1 110:-1 111:-1 112:-1 113:-1 114:-1 115:-1 116:-1 117:-1 118:-1 119:-1 120:-1 121:-0.913043 122:-1 123:-1 124:-1 125:-1 126:-1 127:-1 128:-1 129:-1 130:-1 131:-1 132:-1 133:-1 134:-1 135:-1 136:-1 137:-1 138:-1 139:-1 140:-1 141:-1 142:-1 143:-1 144:-1 145:-1 146:-1 147:-1 148:-1 149:-1 150:-1 151:-1 152:-1 153:-1 154:-1 155:-1 156:-1 157:-1 158:-1 159:-1 160:-1 161:-1 162:-1 163:-1 164:-1 165:-1 167:-1 168:-1 169:-1 170:-1 171:-1 172:-1 173:-1 174:-1 175:-1 176:-1 177:-1 178:-1 179:-0.666667 180:-1 181:-1 182:-1 183:-1 184:-1 185:-1 186:-1 187:-0.875 188:-1 189:-1 190:-1 191:-1 192:-1 193:-1 194:-1 195:-1 196:-1 197:-1 198:-0.771429 
128 1:-1 2:-1 3:-1 4:-1 5:-1 6:-1 7:-1 8:-1 9:-1 10:-1 11:-1 12:-1 13:-1 14:-1 15:-1 16:-1 17:-1 18:-1 19:-1 20:-1 21:-1 22:-1 23:-1 24:-1 25:-1 26:-1 27:-1 28:-1 29:-1 30:-1 31:-1 32:-1 33:-0.857143 34:-1 35:-1 36:-1 37:-1 38:-1 39:-1 40:-1 41:-1 42:-1 43:-1 44:-1 45:-1 46:-1 47:-1 48:-1 49:-1 50:-1 51:-1 52:-1 53:-1 54:-1 55:-1 56:-1 57:-1 58:-1 59:-1 60:-1 61:-1 62:-1 63:-0.73913 64:-1 65:-1 66:-1 67:-1 68:-1 69:-0.9375 70:-1 71:-1 72:-1 73:-1 74:-1 75:-1 76:-1 77:-1 78:-1 79:-1 80:-1 81:-1 82:-1 83:-1 84:-1 85:-1 86:-1 87:-1 88:-1 89:-1 90:-1 91:-1 92:-1 93:-1 94:-1 95:-1 96:-1 97:-1 98:-1 99:-1 100:-1 101:-1 102:-1 103:-1 104:-1 105:-1 106:-1 107:-1 108:-1 109:-1 110:-1 111:-1 112:-1 113:-1 114:-1 115:-1 116:-1 117:-1 118:-1 119:-0.897436 120:-1 121:-0.913043 122:-0.833333 123:-1 124:-1 125:-0.931034 126:-1 127:-1 128:-1 129:-1 130:-1 131:-1 132:-1 133:-1 134:-1 135:-1 136:-1 137:-1 138:-1 139:-1 140:-1 141:-1 142:-1 143:-1 144:-1 145:-1 146:-1 147:-1 148:-1 149:-1 150:-1 151:-1 152:-1 153:-1 154:-1 155:-1 156:-1 157:-1 158:-1 159:-1 160:-1 161:-1 162:-1 163:-1 164:-1 165:-1 167:-1 168:-1 169:-1 170:-1 171:-1 172:-1 173:-1 174:-1 175:-1 176:-1 177:-1 178:-1 179:-1 180:-1 181:-1 182:-1 183:-1 184:-1 185:-1 186:-1 187:-0.75 188:-1 189:-1 190:-1 191:-1 192:-1 193:-1 194:-1 195:-1 196:-1 197:-1 198:-0.485714 
128 1:-1 2:-1 3:-1 4:-1 5:-1 6:-1 7:-0.666667 8:-1 9:-1 10:-1 11:-1 12:-1 13:-1 14:-1 15:-1 16:-1 17:-1 18:-1 19:-1 20:-1 21:-1 22:-1 23:-1 24:-1 25:-1 26:-1 27:-1 28:-1 29:-1 30:-1 31:-1 32:-1 33:-1 34:-1 35:-1 36:-1 37:-1 38:-1 39:-1 40:-1 41:-1 42:-1 43:-1 44:-1 45:-1 46:-1 47:-1 48:-1 49:-1 50:-1 51:-1 52:-1 53:-1 54:-1 55:-1 56:-1 57:-1 58:-1 59:-1 60:-1 61:-1 62:-1 63:-1 64:-1 65:-1 66:-1 67:-1 68:-1 69:-1 70:-1 71:-1 72:-1 73:-1 74:-1 75:-1 76:-1 77:-1 78:-1 79:-1 80:-1 81:-1 82:-1 83:-1 84:-1 85:-1 86:-1 87:-1 88:-1 89:-1 90:-1 91:-1 92:-1 93:-1 94:-1 95:-1 96:-1 97:-1 98:-1 99:-1 100:-1 101:-1 102:-1 103:-1 104:-1 105:-1 106:-1 107:-1 108:-1 109:-1 110:-1 111:-1 112:-1 113:-1 114:-1 115:-1 116:-1 117:-1 118:-1 119:-1 120:-1 121:-0.913043 122:-1 123:-1 124:-1 125:-1 126:-1 127:-1 128:-1 129:-1 130:-1 131:-1 132:-1 133:-1 134:-1 135:-1 136:-1 137:-1 138:-1 139:-1 140:-1 141:-1 142:-1 143:-1 144:-1 145:-1 146:-1 147:-1 148:-1 149:-1 150:-1 151:-1 152:-1 153:-1 154:-1 155:-1 156:-1 157:-1 158:-1 159:-1 160:-1 161:-1 162:-0.666667 163:-1 164:-1 165:-1 167:-1 168:-1 169:-1 170:-1 171:-1 172:-1 173:-1 174:-1 175:-1 176:-1 177:-1 178:-1 179:-1 180:-1 181:-1 182:-1 183:-1 184:-1 185:-1 186:-1 187:-1 188:-1 189:-1 190:-1 191:-1 192:-1 193:-1 194:-1 195:-1 196:-1 197:-1 198:-0.771429 
128 1:-1 2:-1 3:-1 4:-1 5:-1 6:-1 7:-1 8:-1 9:-1 10:-1 11:-1 12:-1 13:-1 14:-1 15:-1 16:-1 17:-1 18:-1 19:-1 20:-1 21:-1 22:-1 23:-1 24:-1 25:-1 26:-1 27:-1 28:-1 29:-1 30:-1 31:-1 32:-1 33:-1 34:-1 35:-1 36:-1 37:-1 38:-1 39:-1 40:-1 41:-1 42:-1 43:-1 44:-0.846154 45:-1 46:-1 47:-1 48:-1 49:-1 50:-1 51:-1 52:-1 53:-1 54:-1 55:-1 56:-0.666667 57:-1 58:-1 59:-1 60:-1 61:-1 62:-1 63:-1 64:-1 65:-1 66:-1 67:-1 68:-1 69:-0.875 70:-1 71:-1 72:-1 73:-1 74:-1 75:-1 76:-1 77:-1 78:-1 79:-1 80:-1 81:-1 82:-0.666667 83:-1 84:-1 85:-1 86:-1 87:-1 88:-1 89:-1 90:-1 91:-1 92:-1 93:-1 94:-1 95:-1 96:-1 97:-1 98:-1 99:-1 100:-1 101:-1 102:-1 103:-1 104:-1 105:-1 106:-1 107:-1 108:-1 109:-1 110:-1 111:-1 112:-1 113:-1 114:-1 115:-1 116:-1 117:-1 118:-1 119:-1 120:-1 121:-0.826087 122:-1 123:-1 124:-1 125:-1 126:-1 127:-1 128:-1 129:-1 130:-1 131:-1 132:-1 133:-1 134:-1 135:-1 136:-1 137:-1 138:-1 139:-1 140:-1 141:-1 142:-1 143:-1 144:-1 145:-1 146:-1 147:-1 148:-1 149:-1 150:-1 151:-1 152:-1 153:-1 154:-1 155:-1 156:-1 157:-1 158:-1 159:-1 160:-1 161:-1 162:-1 163:-1 164:-1 165:-1 167:-1 168:-1 169:-1 170:-1 171:-1 172:-1 173:-1 174:-1 175:-1 176:-1 177:-1 178:-1 179:-0.666667 180:-1 181:-1 182:-1 183:-1 184:-1 185:-1 186:-0.333333 187:-0.875 188:-1 189:-1 190:-1 191:-1 192:-1 193:-1 194:-1 195:-1 196:-1 197:-1 198:-0.714286 
0.452310455749074 1:-1 3:-1 4:-1 5:-1 6:-1 7:-0.666667 8:-1 9:-1 10:-1 11:-1 12:-1 13:-1 14:-1 15:-1 16:-1 17:-0.333333 18:-1 19:-1 20:-1 21:-1 22:-1 23:-1 24:-1 25:-1 26:-1 27:-1 28:-1 29:-1 30:-1 31:-1 32:-1 33:-1 34:-1 35:-1 36:-1 37:-1 38:-1 39:-1 40:-1 41:-1 42:-1 43:-1 44:-1 45:-1 46:-1 47:-1 48:-1 49:-1 50:-1 51:-1 52:-1 53:-1 54:-1 55:-1 56:-1 57:-1 58:-1 59:-1 60:-1 61:-1 62:-1 63:-0.913043 64:-1 65:-1 66:-1 67:-0.666667 68:-1 69:-1 70:-1 71:-1 72:-1 73:-1 74:-1 75:-1 76:-1 77:-1 78:-1 79:-1 80:-1 81:-1 82:-1 83:-1 84:-1 85:-1 86:-1 87:-1 88:-1 89:-1 90:-1 91:-1 92:-1 93:-1 94:-1 95:-1 96:-1 97:-1 98:-1 99:-1 100:-1 101:-1 102:-1 103:-1 104:-1 105:-1 106:-1 107:-1 108:-1 109:-1 110:-1 111:-1 112:-1 113:-1 114:-1 115:-1 116:-1 117:-1 118:-1 119:-1 120:-1 121:-0.913043 122:-0.833333 123:-1 124:-1 125:-1 126:-1 127:-1 128:-1 129:-1 130:-1 131:-1 132:-1 133:-1 134:-1 135:-0.333333 136:-1 137:-1 138:-1 139:-1 140:-1 141:-1 142:-1 143:-1 144:-1 145:-1 146:-1 147:-1 148:-1 149:-1 150:-1 151:-1 152:-1 153:-1 154:-1 155:-1 156:-1 157:-1 158:-0.866667 159:-1 160:-1 161:-1 162:-0.666667 163:-1 164:-1 165:-1 167:-1 168:-1 169:-1 170:-1 171:-1 172:-1 173:-1 174:-1 175:-1 176:-1 177:-1 178:-1 179:-1 180:-1 181:-1 182:-1 183:-1 184:-1 185:-1 186:-1 187:-1 188:-1 189:-1 190:-1 191:-1 192:-1 193:-1 194:-1 195:-1 196:-1 197:-1 198:-0.485714 
3.304296010978758 1:-1 2:-1 3:-1 4:-1 5:-1 6:-1 7:-1 8:-1 9:-1 10:-1 11:-1 12:-1 13:-1 14:-1 15:-1 16:-1 17:-1 18:-1 19:-1 20:-1 21:-1 22:-1 23:-1 24:-1 25:-1 26:1 27:-1 28:-1 29:-1 30:-1 31:-1 32:-1 33:-1 34:-1 35:-1 36:-1 37:-1 38:-1 39:-1 40:-1 41:-1 42:-1 43:-1 44:-1 45:-1 46:-1 47:-1 48:-1 49:-1 50:-1 51:-1 52:-1 53:-1 54:-1 55:-1 56:-1 57:-1 58:-1 59:-1 60:-1 61:-1 62:-1 63:-1 64:-1 65:-1 66:-1 67:-1 68:-1 69:-1 70:-1 71:-1 72:-1 73:-1 74:-1 75:-1 76:-1 77:-1 78:-1 79:-1 80:-1 81:-1 82:-1 83:-1 84:-1 85:-1 86:-1 87:-1 88:-1 89:-1 90:-1 91:-1 92:-1 93:-1 94:-1 95:-1 96:-1 97:-1 98:-1 99:-1 100:-1 101:-1 102:-1 103:-1 104:-1 105:-1 106:-1 107:-1 108:-1 109:-1 110:-1 111:-1 112:-1 113:-1 114:-1 115:-1 116:-1 117:-1 118:-1 119:-1 120:-1 121:-1 122:-0.666667 123:-1 124:-1 125:-1 126:-1 127:-1 128:-1 129:-1 130:-1 131:-1 132:-1 133:-1 134:-1 135:-1 136:-1 137:-1 138:-1 139:-1 140:-1 141:-1 142:-1 143:-1 144:-1 145:-1 146:-1 147:-1 148:-1 149:-1 150:-1 151:-1 152:-1 153:-1 154:-1 155:-1 156:-1 157:-1 158:-1 159:-1 160:-1 161:-1 162:-1 163:-0.666667 164:-1 165:-1 167:-1 168:-1 169:-1 170:-0.5 171:-1 172:-1 173:-1 174:-1 175:-1 176:-1 177:-1 178:-1 179:-1 180:-1 181:-1 182:-1 183:-1 184:-1 185:-1 186:-1 187:-1 188:-1 189:-1 190:-1 191:1 192:-1 193:-1 194:-1 195:-1 196:-1 197:-1 198:-1 
128 1:-1 2:-1 3:-1 4:-1 5:-1 6:-1 7:-1 8:-1 9:-1 10:-1 11:-1 12:-1 13:-1 14:-1 15:-1 16:-1 17:-1 18:-1 19:-1 20:-1 21:-1 22:-1 23:-1 24:-1 25:-1 26:-1 27:-1 28:-1 29:-1 30:-1 31:-1 32:-1 33:-1 34:-1 35:-1 36:-1 37:-1 38:-1 39:-1 40:-1 41:-1 42:-1 43:-1 44:-1 45:-1 46:-1 47:-1 48:-1 49:-1 50:-1 51:-1 52:-1 53:-1 54:-1 55:-1 56:-1 57:-1 58:-1 59:-1 60:-1 61:-1 62:-1 63:-1 64:-1 65:-1 66:-1 67:-1 68:-1 69:-1 70:-1 71:-1 72:-1 73:-1 74:-1 75:-1 76:-1 77:-1 78:-1 79:-1 80:-1 81:-1 82:-1 83:-1 84:-1 85:-1 86:-1 87:-1 88:-1 89:-1 90:-1 91:-1 92:-1 93:-1 94:-1 95:-1 96:-1 97:-1 98:-1 99:-1 100:-1 101:-1 102:-1 103:-1 104:-1 105:-1 106:-1 107:-1 108:-1 109:-1 110:-1 111:-1 112:-1 113:-1 114:-1 115:-1 116:-1 117:-1 118:-1 119:-0.948718 120:-1 121:-1 122:-0.833333 123:-1 124:-1 125:-1 126:-1 127:-1 128:-1 129:-1 130:-1 131:-1 132:-1 133:-1 134:-1 135:-1 136:-1 137:-1 138:-1 139:-1 140:-1 141:-1 142:-1 143:-1 144:-1 145:-1 146:-1 147:-1 148:-1 149:-1 150:-1 151:-1 152:-1 153:-1 154:-1 155:-1 156:-1 157:-1 158:-0.866667 159:-1 160:-1 161:-1 162:-1 163:-1 164:-1 165:-1 167:-1 168:-1 169:-1 170:-1 171:-1 172:-1 173:-1 174:-1 175:-1 176:-1 177:-1 178:-1 179:-1 180:-1 181:-1 182:-1 183:-1 184:-1 185:-1 186:-1 187:-1 188:-1 189:-1 190:-1 191:-1 192:-1 193:-1 194:-1 195:-1 196:-1 197:-1 198:-0.885714 
10.82157739824698 1:-1 2:-1 3:-1 4:-1 5:-1 6:-1 7:-1 8:-1 9:-1 10:-1 11:-1 12:-1 13:-1 14:-1 15:-1 16:-1 17:-1 18:-1 19:-1 20:-1 21:-1 22:-1 23:-1 24:-1 25:-1 26:-1 27:-1 28:-1 29:-1 30:-1 31:-1 32:-1 33:-1 34:-1 35:-1 36:-1 37:-1 38:-1 39:-1 40:-1 41:-1 42:-1 43:-1 44:-1 45:-1 46:-1 47:-1 48:-1 49:-1 50:-1 51:-1 52:-1 53:-1 54:-1 55:-1 56:-1 57:-1 58:-1 59:-1 60:-1 61:-1 62:-1 63:-1 64:-1 65:-1 66:-1 67:-1 68:-1 69:-1 70:-1 71:-1 72:-1 73:-1 74:-1 75:-1 76:-0.714286 77:-1 78:-1 79:-1 80:-1 81:-1 82:-1 83:-1 84:-1 85:-0.333333 86:-1 87:-1 88:-1 89:-1 90:-1 91:-0.5 92:-1 93:-1 94:-1 95:-1 96:-1 97:-1 98:-1 99:-1 100:-1 101:-1 102:-1 103:-1 104:-1 105:-1 106:-1 107:-1 108:-1 109:-1 110:-1 111:-1 112:-1 113:-1 114:-1 115:-1 116:-1 117:-1 119:-0.897436 120:-1 121:-0.913043 122:-0.666667 123:-1 124:-1 125:-0.931034 126:-1 127:-1 128:-1 129:-1 130:-1 131:-1 132:-1 133:-1 134:-1 135:-1 136:-1 137:-1 138:-1 139:-1 140:-1 141:-1 142:-1 143:-1 144:-1 145:-1 146:-1 147:-1 148:-1 149:-1 150:-1 151:-1 152:-1 153:-1 154:-1 155:-1 156:-1 157:-1 158:-1 159:-1 160:-1 161:-1 162:-1 163:-1 164:-1 165:-1 167:-1 168:-1 169:-1 171:-1 172:-1 173:-1 174:-1 175:-1 176:-1 177:-1 178:-1 179:-1 180:-1 181:-1 182:-1 183:-1 184:-1 185:-1 186:-1 187:-1 188:-1 189:-1 190:-1 191:-1 192:-1 193:-1 194:-1 195:-1 196:-1 197:-1 198:-0.485714 
128 1:-1 2:-1 3:-1 4:-1 5:-1 6:-1 7:-1 8:-1 9:-0.666667 10:-1 11:-1 12:-1 13:-1 14:-1 15:-1 16:-1 17:-1 18:-1 19:-1 20:-1 21:-1 22:-1 23:-1 24:-1 25:-1 26:-1 27:-1 28:-1 29:-1 30:-1 31:-1 32:-1 33:-1 34:-1 35:-1 36:-1 37:-1 38:-1 39:-1 40:-1 41:-1 42:-1 43:-1 44:-1 45:-1 46:-1 47:-1 48:-1 49:-1 50:-1 51:-1 52:-1 53:-1 54:-1 55:-1 56:-1 57:-1 58:-1 59:-1 60:-1 61:-1 62:-1 63:-1 64:-1 65:-1 66:-1 67:-1 68:-1 69:-1 70:-1 71:-1 72:-1 73:-1 74:-1 75:-1 76:-1 77:-1 78:-1 79:-1 80:-1 81:-1 82:-1 83:-1 84:-1 85:-1 86:-1 87:-1 88:-1 89:-1 90:-1 91:-1 92:-1 93:-1 94:-1 95:-1 96:-1 97:-1 98:-1 99:-1 100:-1 101:-1 102:-1 103:-1 104:-1 105:-1 106:-1 107:-1 108:-1 109:-1 110:-1 111:-1 112:-1 113:-1 114:-1 115:-1 116:-1 117:-1 118:-1 119:-0.846154 120:-1 121:-1 122:-0.5 123:-1 124:-1 125:-1 126:-1 127:-1 128:-1 129:-1 130:-1 131:-1 132:-1 133:-1 134:-1 135:-1 136:-1 137:-1 138:-1 139:-1 140:-1 141:-1 142:-1 143:-1 144:-1 145:-1 146:-1 147:-1 148:-1 149:-1 150:-1 151:-1 152:-1 153:-1 154:-0.5 155:-1 156:-1 157:-1 158:-0.733333 159:-1 160:-1 161:-1 162:-1 163:-1 164:-1 165:-1 167:-1 168:-1 169:-1 170:-1 171:-1 172:-1 173:-1 174:-1 175:-1 176:-1 177:-1 178:-1 179:-1 180:-1 181:-1 182:-1 183:-1 184:-1 185:-1 186:-1 187:-0.5 188:-1 189:-1 190:-1 191:-1 192:-1 193:-1 194:-1 195:-1 196:-1 197:-1 198:-0.771429 
128 1:-1 2:-1 3:-1 4:-1 5:-1 6:-1 7:-1 8:-1 9:-1 10:-1 11:-0.833333 12:-1 13:-1 14:-1 15:-1 16:-1 17:-1 18:-1 19:-1 20:-1 21:-1 22:-1 23:-1 24:-1 25:-1 26:-1 27:-1 28:-1 29:-1 30:-1 31:-1 32:-1 33:-1 34:-1 35:-1 36:-1 37:-1 38:-1 39:-1 40:-1 41:-1 42:-1 43:-1 44:-1 45:-1 46:-1 47:-1 48:-1 49:-1 50:-1 51:-1 52:-1 53:-1 54:-1 55:-1 56:-1 57:-0.75 58:-1 59:-1 60:-1 61:-1 62:-1 63:-1 64:-1 65:-1 66:-1 67:-1 68:-1 69:-1 70:-1 71:-1 72:-1 73:-1 74:-1 75:-1 76:-1 77:-1 78:-1 79:-1 80:-1 81:-1 82:-1 83:-1 84:-1 85:-1 86:-1 87:-1 88:-1 89:-1 90:-1 91:-1 92:-1 93:-1 94:-1 95:-1 96:-1 97:-1 98:-1 99:-1 100:-1 101:-1 102:-1 103:-1 104:-1 105:-1 106:-1 107:-1 108:-1 109:-1 110:-1 111:-1 112:-1 113:-1 114:-1 115:-1 116:-1 117:-1 118:-1 119:-1 120:-1 121:-1 122:-1 123:-1 124:-1 125:-1 126:-1 127:-1 128:-1 129:-1 130:-1 131:-1 132:-1 133:-1 134:-1 135:-1 136:-1 137:-1 138:-1 139:-1 140:-1 141:-1 142:-1 143:-1 144:-1 145:-1 146:-1 147:-1 148:-1 149:-1 150:-1 151:-1 152:-1 153:-1 154:-1 155:-1 156:-1 157:-1 158:-1 159:-1 160:-1 161:-1 162:-1 163:-1 164:-1 165:-1 167:-1 168:-1 169:-1 170:-1 171:-1 172:-1 173:-1 174:-1 175:-1 176:-1 177:-1 178:-1 179:-1 180:-1 181:-1 182:-1 183:-1 184:-1 185:-1 186:-1 187:-0.75 188:-1 189:-1 190:-1 191:-1 192:-1 193:-1 194:-1 195:-1 196:-1 197:-1 198:-0.6 
39.33314127009645 2:-1 3:-1 4:-1 5:-1 6:-1 7:-1 8:-1 9:-1 10:-1 11:-0.666667 12:-1 13:-1 14:-1 15:-1 16:-1 17:-1 18:-1 19:-1 20:-1 21:-1 22:-1 23:-1 24:-1 25:-1 26:-1 27:-1 28:-1 29:-1 30:-1 31:-1 32:-1 33:-1 34:-1 35:-1 36:-1 37:-1 38:-1 39:-1 40:-1 41:-1 42:-1 43:-1 44:-0.846154 45:-1 46:-1 47:-1 48:-1 49:-1 50:-1 51:-1 52:-1 53:-1 54:-1 55:-1 56:-1 57:-1 58:-1 59:-1 60:-1 61:-1 62:-1 63:-1 64:-1 65:-1 66:-1 67:-1 68:-1 69:-1 70:-1 71:-1 72:-1 73:-1 74:-1 75:-1 76:-1 77:-1 78:-1 79:-1 80:-1 81:-1 82:-1 83:-1 84:-1 85:-1 86:-1 87:-1 88:-1 89:-1 90:-1 91:-1 92:-1 93:-1 94:-1 95:-1 96:-1 97:-1 98:-0.8 99:-1 100:-1 101:-1 102:-1 103:-1 104:-1 105:-1 106:-1 107:-1 108:-1 109:-1 110:-1 111:-1 112:-1 113:-1 114:-1 115:-1 116:-1 117:-1 118:-1 119:-1 120:-1 121:-1 122:-1 123:-1 124:-1 125:-1 126:-1 127:-1 128:-1 129:-1 130:-1 131:-1 132:-1 133:-1 134:-1 135:-1 136:-1 137:-1 138:-1 139:-1 140:-1 141:-1 142:-1 143:-1 144:-1 145:-1 146:-1 147:-1 148:-1 149:-1 150:-1 151:-1 152:-1 153:-1 154:-1 155:-1 156:-1 157:-1 158:-1 159:-1 160:-1 161:-1 162:-1 163:-1 164:-1 165:-1 167:-1 168:-1 169:-1 170:-1 171:-1 172:-1 173:-1 174:-1 175:-1 176:-1 177:-1 178:-1 179:-1 180:-1 181:-1 182:-1 183:-1 184:-1 185:-1 186:-1 187:-1 188:-1 189:-1 190:-1 191:-1 192:-1 193:-1 194:-1 195:-1 196:-1 197:-1 198:-1 
128 1:-1 2:-1 3:-1 4:-1 5:-1 6:-1 7:-1 8:-1 9:-1 10:-1 11:-1 12:-1 13:-1 14:-1 15:-1 16:-1 17:-1 18:-1 19:-1 20:-1 21:-1 22:-1 23:-1 24:-1 25:-1 26:-1 27:-1 28:-1 29:-1 30:-1 31:-1 32:-1 33:-0.857143 34:-1 35:-1 36:-1 37:-1 38:-1 39:-1 40:-1 41:-1 42:-1 43:-1 44:-1 45:-1 46:-1 47:-1 48:-1 49:-1 50:-1 51:-1 52:-1 53:-1 54:-1 55:-1 56:-1 57:-1 58:-1 59:-1 60:-1 61:-1 62:-1 63:-0.913043 64:-1 65:-1 66:-1 67:-1 68:-1 69:-1 70:-1 71:-1 72:-1 73:-0.666667 74:-1 75:-1 76:-0.714286 77:-1 78:-1 79:-1 80:-1 81:-1 82:-1 83:-1 84:-1 85:-1 86:-1 87:-1 88:-1 89:-1 90:-1 91:-1 92:-1 93:-1 94:-1 95:-1 96:-1 97:-1 98:-1 99:-1 100:-1 101:-1 102:-1 103:-1 104:-1 105:-1 106:-1 107:-1 108:-1 109:-1 110:-1 111:-1 112:-1 113:-1 114:-1 115:-1 116:-1 117:-1 118:-1 119:-0.897436 120:-1 121:-1 122:-1 123:-1 124:-1 125:-1 126:-1 127:-1 128:-1 129:-1 130:-1 131:-1 132:-1 133:-1 134:-1 135:-1 136:-1 137:-1 138:-1 139:-1 140:-1 141:-1 142:-1 143:-1 144:-1 145:-1 146:-1 147:-1 148:-1 149:-1 150:-1 151:-1 152:-1 153:-1 154:-1 155:-1 156:-1 157:-1 158:-1 159:-1 160:-1 161:-1 162:-1 163:-1 164:-1 165:-1 167:-1 168:-1 169:-1 170:-1 171:-1 172:-1 173:-1 174:-1 175:-1 176:-1 177:-1 178:-1 179:-1 180:-1 181:-1 182:-1 183:-1 184:-1 185:-1 186:-1 187:-0.875 188:-1 189:-1 190:-1 191:-1 192:-1 193:-1 194:-1 195:-1 196:-1 197:-1 198:-0.771429 
6.44424741691447 1:-1 2:-1 3:-1 4:-1 5:-1 6:-1 7:-1 8:-1 9:-1 10:-1 11:-1 12:-1 13:-1 14:-1 15:-1 16:-1 17:-1 18:-1 20:-1 21:-1 22:-1 23:-1 24:-1 25:-1 26:-1 27:-1 28:-1 29:-1 30:-1 31:-1 32:-1 33:-1 34:-1 35:-1 36:-1 37:-1 38:-1 39:-1 40:-1 41:-1 42:-1 43:-1 44:-1 45:-1 46:-1 47:-1 48:-1 49:-1 50:-1 51:-1 52:-1 53:-1 54:-1 55:-1 56:-1 57:-1 58:-1 59:-1 60:-1 61:-1 62:-1 63:-1 64:-1 65:-1 66:-1 67:-0.666667 68:-1 69:-1 70:-1 71:-1 72:-1 73:-1 74:-1 75:-1 76:-1 77:-1 78:-1 79:-1 80:-1 81:0.2 82:-1 83:-1 84:-1 85:-1 86:-1 87:-1 88:-1 89:-1 90:-1 91:-1 92:-1 93:-1 94:-1 95:-1 96:-1 97:-1 98:-1 99:-1 100:-1 101:-1 102:-1 103:-1 104:-1 105:-1 106:-1 107:-1 108:-1 109:-1 110:-1 111:-1 112:-1 113:-1 114:-1 115:-1 116:-1 117:-1 118:-1 119:-1 120:-1 121:-1 122:-0.5 123:-1 124:-1 125:-1 126:-1 127:-1 128:-1 129:-1 130:-1 131:-1 132:-1 133:-1 134:-1 136:-1 137:-1 138:-1 139:-1 140:-1 141:-1 142:-1 143:-1 144:-1 145:-1 146:-1 147:-1 148:-1 149:-1 150:-1 151:-1 152:-1 153:-1 154:-1 155:-1 156:-1 157:-1 158:-0.6 159:-1 160:-1 161:-1 162:-1 163:-1 164:-1 165:-1 167:-1 168:-1 169:-1 170:-1 171:-1 172:-1 173:-1 174:-1 175:-1 176:-1 177:-1 178:-1 179:-1 180:-1 181:-1 182:-1 183:-1 184:0.2 185:-1 186:-1 187:-1 188:-1 189:-1 190:-1 191:-1 192:-1 193:-1 194:-1 195:-1 196:-1 197:-1 198:-1 
128 1:-1 2:-1 3:-1 4:-1 5:-1 6:-1 7:-1 8:-1 9:-1 10:-1 11:-1 12:-1 13:-1 14:-1 15:-1 16:-1 17:-1 18:-1 19:-1 20:-1 21:-1 22:-1 23:-1 24:-1 25:-1 26:-1 27:-1 28:-1 29:-1 30:-1 31:-1 32:-1 33:-1 34:-1 35:-1 36:-1 37:-1 38:-1 39:-1 40:-1 41:-1 42:-1 43:-1 44:-0.846154 45:-1 46:-1 47:-1 48:-1 49:-1 50:-1 51:-1 52:-1 53:-1 54:-1 55:-1 56:-0.666667 57:-1 58:-1 59:-1 60:-1 61:-1 62:-1 63:-1 64:-1 65:-1 66:-1 67:-1 68:-1 69:-0.875 70:-1 71:-1 72:-1 73:-1 74:-1 75:-1 76:-1 77:-1 78:-1 79:-1 80:-1 81:-1 82:-0.666667 83:-1 84:-1 85:-1 86:-1 87:-1 88:-1 89:-1 90:-1 91:-1 92:-1 93:-1 94:-1 95:-1 96:-1 97:-1 98:-0.8 99:-1 100:-1 101:-1 102:-1 103:-1 104:-1 105:-1 106:-1 107:-1 108:-1 109:-1 110:-1 111:-1 112:-1 113:-1 114:-1 115:-1 116:-1 117:-1 118:-1 119:-1 120:-1 121:-0.913043 122:-1 123:-1 124:-1 125:-1 126:-1 127:-1 128:-1 129:-1 130:-1 131:-1 132:-1 133:-1 134:-1 135:-1 136:-1 137:-1 138:-1 139:-1 140:-1 141:-1 142:-1 143:-1 144:-1 145:-1 146:-1 147:-1 148:-1 149:-1 150:-1 151:-1 152:-1 153:-1 154:-1 155:-1 156:-1 157:-1 158:-1 159:-1 160:-1 161:-1 162:-1 163:-1 164:-1 165:-1 167:-1 168:-1 169:-1 170:-1 171:-1 172:-1 173:-1 174:-1 175:-1 176:-1 177:-1 178:-1 179:-0.666667 180:-1 181:-1 182:-1 183:-1 184:-1 185:-1 186:-0.333333 187:-0.75 188:-1 189:-1 190:-1 191:-1 192:-1 193:-1 194:-1 195:-1 196:-1 197:-1 198:-0.657143 
128 1:-1 2:-1 3:-1 4:-1 5:-1 6:-1 7:-1 8:-1 9:-1 10:-1 11:-1 12:-1 13:-1 14:-1 15:-1 16:-1 17:-1 18:-1 19:-1 20:-1 21:-1 22:-1 23:-1 24:-1 25:-1 26:-1 27:-1 28:-1 29:-1 30:-1 31:-1 32:-1 33:-1 34:-1 35:-1 36:-1 37:-1 38:-1 39:-1 40:-1 41:-1 42:-1 43:-1 44:-1 45:-1 46:-1 47:-1 48:-1 49:-1 50:-1 51:-1 52:-1 53:-1 54:-1 55:-1 56:-1 57:-1 58:-1 59:-1 60:-1 61:-1 62:-1 63:-1 64:-1 65:-1 66:-1 67:-1 68:-1 69:-1 70:-1 71:-1 72:-1 73:-1 74:-1 75:-1 76:-1 77:-1 78:-1 79:-1 80:-1 81:-0.8 82:-1 83:-1 84:-1 85:-1 86:-1 87:-1 88:-1 89:-1 90:-1 91:-1 92:-1 93:-1 94:-1 95:-1 96:-1 97:-1 98:-1 99:-1 100:-1 101:-1 102:-1 103:-1 104:-1 105:-1 106:-1 107:-1 108:-1 109:-1 110:-1 111:-1 112:-1 113:-1 114:-1 115:-1 116:-1 117:-1 118:-1 119:-0.948718 120:-1 121:-1 122:-0.833333 123:-1 124:-1 125:-1 126:-1 127:-1 128:-1 129:-1 130:-1 131:-1 132:-1 133:-1 134:-1 135:-1 136:-1 137:-1 138:-1 139:-1 140:-1 141:-1 142:-1 143:-1 144:-1 145:-1 146:-1 147:-1 148:-1 149:-1 150:-1 151:-1 152:-1 153:-1 154:-1 155:-1 156:-1 157:-1 158:-0.866667 159:-1 160:-1 161:-1 162:-1 163:-1 164:-1 165:-1 167:-1 168:-1 169:-1 170:-1 171:-1 172:-1 173:-1 174:-1 175:-1 176:-1 177:-1 178:-1 179:-1 180:-1 181:-1 182:-1 183:-1 184:-0.8 185:-1 186:-1 187:-1 188:-1 189:-1 190:-1 191:-1 192:-1 193:-1 194:-1 195:-1 196:-1 197:-1 198:-1 
128 1:-1 2:-1 3:-1 4:-1 5:-1 6:-1 7:-1 8:-1 9:-1 10:-1 11:-1 12:-1 13:-1 14:-1 15:-1 16:-1 17:-1 18:-1 19:-1 20:-1 21:-1 22:-1 23:-1 24:-1 25:-1 26:-1 27:-1 28:-1 29:-1 30:-1 31:-1 32:-1 33:-1 34:-1 35:-1 36:-1 37:-1 38:-1 39:-1 40:-1 41:-1 42:-1 43:-1 44:-1 45:-1 46:-1 47:-1 48:-1 49:-1 50:-1 51:-1 52:-1 53:-1 54:-1 55:-1 56:-1 57:-1 58:-1 59:-1 60:-1 61:-1 62:-1 63:-1 64:-1 65:-1 66:-1 67:-1 68:-1 69:-1 70:-1 71:-1 72:-1 73:-1 74:-1 75:-1 76:-1 77:-1 78:-1 79:-1 80:-1 81:-1 82:-1 83:-1 84:-1 85:-1 86:-1 87:-1 88:-1 89:-1 90:-1 91:-1 92:-1 93:-1 94:-1 95:-1 96:-1 97:-1 98:-1 99:-1 100:-1 101:-1 102:-1 103:-1 104:-1 105:-1 106:-1 107:-1 108:-1 109:-1 110:-1 111:-1 112:-1 113:-1 114:-1 115:-1 116:-1 117:-1 118:-1 119:-0.948718 120:-1 121:-1 122:-0.5 123:-1 124:-1 125:-1 126:-1 127:-1 128:-1 129:-1 130:-1 131:-1 132:-1 133:-1 134:-1 135:-1 136:-1 137:-1 138:-1 139:-1 140:-1 141:-1 142:-1 143:-1 144:-1 145:-1 146:-1 147:-1 148:-1 149:-1 150:-1 151:-1 152:-1 153:-1 154:-1 155:-1 156:-1 157:-1 158:-0.866667 159:-1 160:-1 161:-1 162:-1 163:-1 164:-1 165:-1 167:-1 168:-1 169:-1 170:-1 171:-1 172:-1 173:-1 174:-1 175:-1 176:-1 177:-1 178:-1 179:-1 180:-1 181:-1 182:-1 183:-1 184:-1 185:-1 186:-1 187:-0.25 188:-1 189:-1 190:-1 191:-1 192:-1 193:-1 194:-1 195:-1 196:-1 197:-1 198:-0.714286 
128 1:-1 2:-1 3:-1 4:-1 5:-1 6:-1 7:-1 8:-1 9:-1 10:-1 11:-1 12:-1 13:-1 14:-1 15:-1 16:-1 17:-1 18:-1 19:-1 20:-1 21:-1 22:-1 23:-1 24:-1 25:-1 26:-1 27:-1 28:-1 29:-1 30:-1 31:-1 32:-1 33:-1 34:-1 35:-1 36:-1 37:-1 38:-1 39:-1 40:-1 41:-1 42:-1 43:-1 44:-1 45:-1 46:-1 47:-1 48:-1 49:-1 50:-1 51:-1 52:-1 53:-1 54:-1 55:-1 56:-0.666667 57:-1 58:-1 59:-1 60:-1 61:-1 62:-1 63:-1 64:-1 65:-1 66:-1 67:-1 68:-1 69:-1 70:-1 71:-1 72:-1 73:-1 74:-1 75:-1 76:-1 77:-1 78:-1 79:-1 80:-1 81:-1 82:-1 83:-1 84:-1 85:-1 86:-1 87:-1 88:-1 89:-1 90:-1 91:-1 92:-1 93:-1 94:-1 95:-1 96:-1 97:-1 98:-0.8 99:-1 100:-1 101:-1 102:-1 103:-1 104:-1 105:-1 106:-1 107:-1 108:-1 109:-1 110:-1 111:-1 112:-1 113:-1 114:-1 115:-1 116:-1 117:-1 118:-1 119:-1 120:-1 121:-0.826087 122:-1 123:-1 124:-1 125:-1 126:-1 127:-1 128:-1 129:-1 130:-1 131:-1 132:-1 133:-1 134:-1 135:-1 136:-1 137:-1 138:-1 139:-1 140:-1 141:-1 142:-1 143:-1 144:-1 145:-1 146:-1 147:-1 148:-1 149:-1 150:-1 151:-1 152:-1 153:-1 154:-1 155:-1 156:-1 157:-1 158:-1 159:-1 160:-1 161:-1 162:-1 163:-1 164:-1 165:-1 167:-1 168:-1 169:-1 170:-1 171:-1 172:-1 173:-1 174:-1 175:-1 176:-1 177:-1 178:-1 179:-1 180:-1 181:-1 182:-1 183:-1 184:-1 185:-1 186:-1 187:-0.375 188:-1 189:-1 190:-1 191:-1 192:-1 193:-1 194:-1 195:-1 196:-1 197:-1 198:-0.257143 
128 1:-1 2:-1 3:-1 4:-1 5:-1 6:-1 7:-1 8:-1 9:-1 10:-1 11:-1 12:-1 13:-1 14:-1 15:-1 16:-1 17:-1 18:-1 19:-1 20:-1 21:-1 22:-1 23:-1 24:-1 25:-1 26:-1 27:-1 28:-1 29:-1 30:-1 31:-1 32:-1 33:-0.857143 34:-1 35:-1 36:-1 37:-1 38:-1 39:-1 40:-1 41:-1 42:-1 43:-1 44:-0.692308 45:-1 46:-1 47:-1 48:-1 49:-1 50:-1 51:-1 52:-1 53:-1 54:-1 55:-1 56:-0.666667 57:-1 58:-1 59:-1 60:-1 61:-1 62:-1 63:-0.826087 64:-1 65:-1 66:-1 67:-1 68:-1 69:-1 70:-1 71:-1 72:-1 73:-1 74:-1 75:-1 76:-1 77:-1 78:-1 79:-1 80:-1 81:-1 82:-1 83:-1 84:-1 85:-1 86:-1 87:-1 88:-1 89:-1 90:-1 91:-1 92:-1 93:-1 94:-1 95:-1 96:-1 97:-1 98:-0.6 99:-1 100:-1 101:-1 102:-1 103:-1 104:-1 105:-1 106:-1 107:-1 108:-1 109:-1 110:-1 111:-1 112:-1 113:-1 114:-1 115:-1 116:-1 117:-1 118:-1 119:-1 120:-1 121:-0.913043 122:-0.833333 123:-1 124:-1 125:-1 126:-1 127:-1 128:-1 129:-1 130:-1 131:-1 132:-1 133:-1 134:-1 135:-1 136:-1 137:-1 138:-1 139:-1 140:-1 141:-1 142:-1 143:-1 144:-1 145:-1 146:-1 147:-1 148:-1 149:-1 150:-1 151:-1 152:-1 153:-1 154:-1 155:-1 156:-1 157:-1 158:-1 159:-1 160:-1 161:-1 162:-1 163:-1 164:-1 165:-1 167:-1 168:-1 169:-1 170:-1 171:-1 172:-1 173:-1 174:-1 175:-1 176:-1 177:-1 178:-1 179:-0.333333 180:-1 181:-1 182:-1 183:-1 184:-1 185:-1 186:-1 187:-0.625 188:-1 189:-1 190:-1 191:-1 192:-1 193:-1 194:-1 195:-1 196:-1 197:-1 198:-0.542857 
128 1:-1 2:-1 3:-1 4:-1 5:-1 6:-1 7:-1 8:-1 9:-1 10:-1 11:-1 12:-1 13:-1 14:-1 15:-1 16:-1 17:-1 18:-1 19:-1 20:-1 21:-1 22:-1 23:-1 24:-1 25:-1 26:-1 27:-1 28:-1 29:-1 30:-1 31:-1 32:-1 33:-0.714286 34:-1 35:-1 36:-1 37:-1 38:-1 39:-1 40:-1 41:-1 42:-1 43:-1 44:-1 45:-1 46:-1 47:-1 48:-1 49:-1 50:-1 51:-1 52:-1 53:-1 54:-1 55:-1 56:-1 57:-1 58:-1 59:-1 60:-1 61:-1 62:-1 63:-0.913043 64:-1 65:-1 66:-1 67:-1 68:-1 69:-1 70:-1 71:-1 72:-1 73:-1 74:-1 75:-1 76:-1 77:-1 78:-1 79:-1 80:-1 81:-1 82:-1 83:-1 84:-1 85:-1 86:-1 87:-1 88:-1 89:-1 90:-1 91:-1 92:-1 93:-1 94:-1 95:-1 96:-1 97:-1 98:-1 99:-1 100:-1 101:-1 102:-1 103:-1 104:-1 105:-1 106:-1 107:-1 108:-1 109:-1 110:-1 111:-1 112:-1 113:-1 114:-1 115:-1 116:-1 117:-1 118:-1 119:-1 120:-1 121:-1 122:-0.833333 123:-1 124:-1 125:-1 126:-1 127:-1 128:-1 129:-1 130:-1 131:-1 132:-1 133:-1 134:-1 135:-1 136:-1 137:-1 138:-1 139:-1 140:-1 141:-1 142:-1 143:-1 144:-1 145:-1 146:-1 147:-1 148:-1 149:-1 150:-1 151:-1 152:-1 153:-1 154:-1 155:-1 156:-1 157:-1 158:-0.6 159:-1 160:-1 161:-1 162:-1 163:-1 164:-1 165:-1 167:-1 168:-1 169:-1 170:-1 171:-1 172:-1 173:-1 174:-1 175:-1 176:-1 177:-1 178:-1 179:-1 180:-1 181:-1 182:-1 183:-1 184:-1 185:-1 186:-1 187:-1 188:-1 189:-1 190:-1 191:-1 192:-1 193:-1 194:-1 195:-1 196:-1 197:-1 198:-0.885714 
128 1:-1 2:-1 3:-1 4:-1 5:-1 6:-1 7:-0.666667 8:-1 9:-1 10:-1 11:-1 12:-1 13:-1 14:-1 15:-1 16:-1 17:-1 18:-1 19:-1 20:-1 21:-1 22:-1 23:-1 24:-1 25:-1 26:-1 27:-1 28:-1 29:-1 30:-1 31:-1 32:-1 33:-1 34:-1 35:-1 36:-1 37:-1 38:-1 39:-1 40:-1 41:-1 42:-1 43:-1 44:-1 45:-1 46:-1 47:-1 48:-1 49:-1 50:-1 51:-1 52:-1 53:-1 54:-1 55:-1 56:-1 57:-1 58:-1 59:-1 60:-1 61:-1 62:-1 63:-1 64:-1 65:-1 66:-1 67:-1 68:-1 69:-1 70:-1 71:-1 72:-1 73:-1 74:-1 75:-1 76:-0.714286 77:-1 78:-1 79:-1 80:-1 81:-1 82:-1 83:-1 84:-1 85:-1 86:-1 87:-1 88:-1 89:-1 90:-1 91:-1 92:-1 93:-1 94:-1 95:-1 96:-1 97:-1 98:-1 99:-1 100:-1 101:-1 102:-1 103:-1 104:-1 105:-1 106:-1 107:-1 108:-1 109:-1 110:-1 111:-1 112:-1 113:-1 114:-1 115:-1 116:-1 117:-1 118:-1 119:-0.897436 120:-1 121:-0.913043 122:-1 123:-1 124:-1 125:-1 126:-1 127:-1 128:-1 129:-1 130:-1 131:-1 132:-1 133:-1 134:-1 135:-1 136:-1 137:-1 138:-1 139:-1 140:-1 141:-1 142:-1 143:-1 144:-1 145:-1 146:-1 147:-1 148:-1 149:-1 150:-1 151:-1 152:-1 153:-1 154:-1 155:-1 156:-1 157:-1 158:-1 159:-1 160:-1 161:-1 162:-0.666667 163:-1 164:-1 165:-1 167:-1 168:-1 169:-1 170:-1 171:-1 172:-1 173:-1 174:-1 175:-1 176:-1 177:-1 178:-1 179:-1 180:-1 181:-1 182:-1 183:-1 184:-1 185:-1 186:-1 187:-0.875 188:-1 189:-1 190:-1 191:-1 192:-1 193:-1 194:-1 195:-1 196:-1 197:-1 198:-0.657143 
103.7055044965482 1:-1 2:-1 3:-1 4:-1 5:-1 6:-1 7:-1 8:-1 9:-1 10:-1 11:-1 12:-1 13:-1 14:-1 15:-1 16:-1 17:-1 18:-1 19:-1 20:-1 21:-1 22:-1 23:-1 24:-1 25:-1 26:-1 27:-1 28:-1 29:-1 30:-1 31:-1 32:-1 33:-1 34:-1 35:-1 36:-1 37:-1 38:-1 39:-1 40:-1 41:-1 42:-1 43:-1 44:-0.846154 45:-1 46:-1 47:-1 48:-1 49:-1 50:-1 51:-1 52:-1 53:-1 54:-1 55:-1 56:-1 57:-1 58:-1 59:-1 60:-1 61:-1 62:-1 63:-1 64:-1 65:-1 66:-1 67:-1 68:-1 69:-1 70:-1 71:-1 72:-1 73:-1 74:-1 75:-1 76:-1 77:-1 78:-1 79:-1 80:-1 81:-1 82:-1 83:-1 84:-1 85:-1 86:-1 87:-1 88:-1 89:-1 90:-1 91:-1 92:-1 93:-1 94:-1 95:-1 96:-1 97:-1 98:-1 99:-1 100:-1 101:-1 102:-1 103:-1 104:-1 105:-1 106:-1 107:-1 108:-1 109:-1 110:-0.333333 112:-1 113:-1 114:-1 115:-1 116:-1 117:-1 118:-1 119:-0.948718 120:-1 121:-1 122:-1 123:-1 124:-1 125:-1 126:-1 127:-1 128:-1 129:-1 130:-1 131:-1 132:-1 133:-1 134:-1 135:-1 136:-1 137:-1 138:-1 139:-1 140:-1 141:-1 142:-1 143:-1 144:-1 145:-1 146:-1 147:-1 148:-1 149:-1 150:-1 151:-1 152:-1 153:-1 154:-1 155:-1 156:-1 157:-1 158:-1 159:-1 160:-1 161:-1 162:-0.833333 163:-1 164:-1 165:-1 167:-1 168:-1 169:-1 170:-1 171:-1 172:-1 173:-1 174:-1 175:-1 176:-1 177:-1 178:-1 179:-1 180:-1 181:-1 182:-1 183:-1 184:-1 185:-1 186:-1 187:-1 188:-1 189:-1 190:-1 191:-1 192:-1 193:-1 194:-1 195:-1 196:-1 197:-1 198:-1 
1.501059440987846 1:-1 2:-1 3:-1 4:-1 5:1 6:-1 7:-1 8:-1 9:-1 10:-1 11:-1 12:-1 13:-1 14:-1 15:-1 16:-1 17:-1 18:-1 19:-1 20:-1 21:-1 22:-1 23:-1 24:-1 25:-1 26:-1 27:-1 28:-1 29:-1 30:-1 31:-1 32:-1 33:-0.857143 34:-1 35:-1 36:-1 37:-1 38:-1 39:-1 40:-1 41:-1 42:-1 43:-1 44:-1 45:-1 46:-1 47:-1 48:-1 49:-1 50:-1 51:-1 52:-1 53:-1 54:-1 55:-1 56:-1 57:-1 58:-1 59:-1 60:-1 61:-1 62:-1 63:-0.913043 64:-1 65:-1 66:-1 67:-1 68:-1 69:-1 70:-1 71:-1 72:-1 73:-1 74:-1 75:-1 76:-1 77:-1 78:-1 79:-1 80:-1 81:-1 82:-1 83:-1 84:-1 85:-1 86:-1 87:-1 88:-1 89:-1 90:-1 91:-1 92:-1 93:-1 94:-1 95:-1 96:-1 97:-1 98:-1 99:-1 100:-1 101:-1 102:-1 103:-1 104:-1 105:-1 106:-1 107:-1 108:-1 109:-1 110:-1 111:-1 112:-1 113:-1 114:-1 115:-1 116:-1 117:-1 118:-1 119:-1 120:-1 121:-1 122:-1 123:-1 124:-1 125:-1 126:-1 127:-1 128:-1 129:-1 130:-1 131:-1 132:-1 133:-1 134:-1 135:-1 136:-1 137:-1 138:-1 139:-1 140:-1 141:-1 142:-1 143:-1 144:-0.894737 145:-1 146:-1 147:-1 148:-1 149:-1 150:-1 151:-1 152:-1 153:-1 154:-1 155:-1 156:-1 157:-1 158:-0.866667 159:-1 160:-1 161:-1 162:-1 163:-1 164:-1 165:-1 167:-1 168:-1 169:-1 170:-1 171:-1 172:-1 173:-1 174:-1 175:-1 176:-1 177:-1 178:-1 179:-1 180:-1 181:-1 182:-1 183:-1 184:-1 185:-1 186:-1 187:-1 188:-1 189:-1 190:-1 191:-1 192:-1 193:-1 194:-1 195:-1 196:-1 197:-1 198:-1 
128 1:-1 2:-1 3:-1 4:-1 5:-1 6:-1 7:-1 8:-1 9:-1 10:-1 11:-0.833333 12:-1 13:-1 14:-1 15:-1 16:-1 17:-1 18:-1 19:-1 20:-1 21:-1 22:-1 23:-1 24:-1 25:-1 26:-1 27:-1 28:-1 29:-1 30:-1 31:-1 32:-1 33:-1 34:-1 35:-1 36:-1 37:-1 38:-1 39:-1 40:-1 41:-1 42:-1 43:-1 44:-1 45:-1 46:-1 47:-1 48:-1 49:-1 50:-1 51:-1 52:-1 53:-1 54:-1 55:-1 56:-1 57:-0.75 58:-1 59:-1 60:-1 61:-1 62:-1 63:-1 64:-1 65:-1 66:-1 67:-1 68:-1 69:-0.9375 70:-1 71:-1 72:-1 73:-1 74:-1 75:-1 76:-1 77:-1 78:-1 79:-1 80:-1 81:-1 82:-1 83:-1 84:-1 85:-1 86:-1 87:-1 88:-1 89:-1 90:-1 91:-1 92:-1 93:-1 94:-1 95:-1 96:-1 97:-1 98:-0.8 99:-1 100:-1 101:-1 102:-1 103:-1 104:-1 105:-1 106:-1 107:-1 108:-1 109:-1 110:-1 111:-1 112:-1 113:-1 114:-1 115:-1 116:-1 117:-1 118:-1 119:-0.948718 120:-1 121:-1 122:-1 123:-1 124:-1 125:-0.931034 126:-1 127:-1 128:-1 129:-1 130:-1 131:-1 132:-1 133:-1 134:-1 135:-1 136:-1 137:-1 138:-1 139:-1 140:-1 141:-1 142:-1 143:-1 144:-1 145:-1 146:-1 147:-1 148:-1 149:-1 150:-1 151:-1 152:-1 153:-1 154:-1 155:-1 156:-1 157:-1 158:-1 159:-1 160:-1 161:-1 162:-1 163:-1 164:-1 165:-1 167:-1 168:-1 169:-1 170:-1 171:-1 172:-1 173:-1 174:-1 175:-1 176:-1 177:-1 178:-1 179:-1 180:-1 181:-1 182:-1 183:-1 184:-1 185:-1 186:-1 187:-0.75 188:-1 189:-1 190:-1 191:-1 192:-1 193:-1 194:-1 195:-1 196:-1 197:-1 198:-0.428571 
128 1:-1 2:-1 3:-1 4:-1 5:-1 6:-1 7:-1 8:-1 9:-1 10:-1 11:-1 12:-1 13:-1 14:-1 15:-1 16:-1 17:-1 18:-1 19:-1 20:-1 21:-1 22:-1 23:-1 24:-1 25:-1 26:-1 27:-1 28:-1 29:-1 30:-1 31:-1 32:-1 33:-1 34:-1 35:-1 36:-1 37:-1 38:-1 39:-1 40:-1 41:-1 42:-1 43:-1 44:-1 45:-1 46:-1 47:-1 48:-1 49:-1 50:-1 51:-1 52:-1 53:-1 54:-1 55:-1 56:-1 57:-1 58:-1 59:-1 60:-1 61:-1 62:-1 63:-0.913043 64:-1 65:-1 66:-1 67:-1 68:-1 69:-1 70:-1 71:-1 72:-1 73:-1 74:-1 75:-1 76:-1 77:-1 78:-1 79:-1 80:-1 81:-1 82:-1 83:-1 84:-1 85:-1 86:-1 87:-1 88:-1 89:-1 90:-1 91:-1 92:-1 93:-1 94:-1 95:-1 96:-1 97:-1 98:-1 99:-1 100:-1 101:-1 102:-1 103:-1 104:-1 105:-1 106:-1 107:-1 108:-1 109:-1 110:-1 111:-1 112:-1 113:-1 114:-1 115:-1 116:-1 117:-1 119:-0.948718 120:-1 121:-1 122:-0.333333 123:-1 124:-1 125:-1 126:-1 127:-1 128:-1 129:-1 130:-1 131:-1 132:-1 133:-1 134:-1 135:-1 136:-1 137:-1 138:-1 139:-1 140:-1 141:-1 142:-1 143:-1 144:-1 145:-1 146:-1 147:-1 148:-1 149:-1 150:-1 151:-1 152:-1 153:-1 154:-1 155:-1 156:-1 157:-1 158:-1 159:-1 160:-1 161:-1 162:-0.833333 163:-1 164:-1 165:-1 167:-1 168:-1 169:-1 170:-1 171:-1 172:-1 173:1 174:-1 175:-1 176:-1 177:-1 178:-1 179:-1 180:-1 181:-1 182:-1 183:-1 184:-1 185:-1 186:-1 187:-1 188:-1 189:-1 190:-1 191:-1 192:-1 193:-1 194:-1 195:-1 196:-1 197:-1 198:-0.885714 
128 1:-1 2:-1 3:-1 4:-1 5:-1 6:-1 7:-1 8:-1 9:-1 10:-1 11:-1 12:-1 13:-1 14:-1 15:-1 16:-1 17:-1 18:-1 19:-1 20:-1 21:-1 22:-1 23:-1 24:-1 25:-1 26:-1 27:-1 28:-1 29:-1 30:-1 31:-1 32:-1 33:-1 34:-1 35:-1 36:-1 37:-1 38:-1 39:-1 40:-1 41:-1 42:-1 43:-1 44:-1 45:-1 46:-1 47:-1 48:-1 49:-1 50:-1 51:-1 52:-1 53:-1 54:-1 55:-1 56:-1 57:-1 58:-1 59:-1 60:-1 61:-1 62:-1 63:-1 64:-1 65:-1 66:-1 67:-1 68:-1 69:-0.9375 70:-1 71:-1 72:-1 73:-1 74:-1 75:-1 76:-1 77:-1 78:-1 79:-1 80:-1 81:-1 82:-1 83:-1 84:-1 85:-0.333333 86:-1 87:-1 88:-1 89:-1 90:-1 91:-1 92:-1 93:-1 94:-1 95:-1 96:-1 97:-1 98:-1 99:-1 100:-1 101:-1 102:-1 103:-1 104:-1 105:-1 106:-1 107:-1 108:-1 109:-1 110:-1 111:-1 112:-1 113:-1 114:-1 115:-1 116:-1 117:-1 118:-1 119:-0.948718 120:-1 121:-0.913043 122:-0.833333 123:-1 124:-1 125:-0.931034 126:-1 127:-1 128:-1 129:-1 130:-1 131:-1 132:-1 133:-1 134:-1 135:-1 136:-1 137:-1 138:-1 139:-1 140:-1 141:-1 142:-1 143:-1 144:-1 145:-1 146:-1 147:-1 148:-1 149:-1 150:-1 151:-1 152:-1 153:-1 154:-1 155:-1 156:-1 157:-1 158:-1 159:-1 160:-1 161:-1 162:-1 163:-1 164:-1 165:-1 167:-1 168:-1 169:-1 171:-1 172:-1 173:-1 174:-1 175:-1 176:-1 177:-1 178:-1 179:-1 180:-1 181:-1 182:-1 183:-1 184:-1 185:-1 186:-1 187:-1 188:-1 189:-1 190:-1 191:-1 192:-1 193:-1 194:-1 195:-1 196:-1 197:-1 198:-0.485714 
128 1:-1 2:-1 3:-1 4:-1 5:-1 6:-1 7:-1 8:-1 9:-1 10:-1 11:-1 12:-1 13:-1 14:-1 15:-1 16:-1 17:-1 18:-1 19:-1 20:-1 21:-1 22:-1 23:-1 24:-1 25:-1 26:-1 27:-1 28:-1 29:-1 30:-1 31:-1 32:-1 33:-1 34:-1 35:-1 36:-1 37:-1 38:-1 39:-1 40:-1 41:-1 42:-1 43:-1 44:-1 45:-1 46:-1 47:-1 48:-1 49:-1 50:-1 51:-1 52:-1 53:-1 54:-1 55:-1 56:-1 57:-1 58:-1 59:-1 60:-1 61:-1 62:-1 63:-1 64:-1 65:-1 66:-1 67:-1 68:-1 69:-1 70:-1 71:-1 72:-1 73:-1 74:-1 75:-1 76:-1 77:-1 78:-1 79:-1 80:-1 81:-1 82:-1 83:-1 84:-1 85:-1 86:-1 87:-1 88:-1 89:-1 90:-1 91:-1 92:-1 93:-1 94:-1 95:-1 96:-1 97:-1 98:-1 99:-1 100:-1 101:-1 102:-1 103:-1 104:-1 105:-1 106:-1 107:-1 108:-1 109:-1 110:-1 111:-1 112:-1 113:-1 114:-1 115:-1 116:-1 117:-1 119:-0.948718 120:-1 121:-0.913043 122:-0.833333 123:-1 124:-1 125:-0.931034 126:-1 127:-1 128:-1 129:-1 130:-1 131:-1 132:-1 133:-1 134:-1 135:-1 136:-1 137:-1 138:-1 139:-1 140:-1 141:-1 142:-1 143:-1 144:-1 145:-1 146:-1 147:-1 148:-1 149:-1 150:-1 151:-1 152:-1 153:-1 154:-1 155:-1 156:-1 157:-1 158:-1 159:-1 160:-1 161:-1 162:-0.833333 163:-1 164:-1 165:-1 167:-1 168:-1 169:-1 170:-1 171:-1 172:-1 173:-1 174:-1 175:-1 176:-1 177:-1 178:-1 179:-1 180:-1 181:-1 182:-1 183:-1 184:-1 185:-1 186:-1 187:-0.75 188:-1 189:-1 190:-1 191:-1 192:-1 193:-1 194:-1 195:-1 196:-1 197:-1 198:-0.428571 
128 1:-1 2:-1 3:-1 4:-1 5:-1 6:-1 7:-1 8:-1 9:-1 10:-1 11:-1 12:-1 13:-1 14:-1 15:-1 16:-1 17:-1 18:-1 19:-1 20:-1 21:-1 22:-1 23:-1 24:-1 25:-1 26:-1 27:-1 28:-1 29:-1 30:-1 31:-1 32:-1 33:-0.857143 34:-1 35:-1 36:-1 37:-1 38:-1 39:-1 40:-1 41:-1 42:-1 43:-1 44:-1 45:-1 46:-1 47:-1 48:-1 49:-1 50:-1 51:-1 52:-1 53:-1 54:-1 55:-1 56:-1 57:-1 58:-1 59:-1 60:-1 61:-1 62:-1 63:-0.73913 64:-1 65:-1 66:-1 67:-1 68:-1 69:-1 70:-1 71:-1 72:-1 73:-1 74:-1 75:-1 76:-1 77:-1 78:-1 79:-1 80:-1 81:-1 82:-1 83:-1 84:-1 85:-1 86:-1 87:-1 88:-1 89:-1 90:-1 91:-1 92:-1 93:-1 94:-1 95:-1 96:-1 97:-1 98:-1 99:-1 100:-1 101:-1 102:-1 103:-1 104:-1 105:-1 106:-1 107:-1 108:-1 109:-1 110:-1 111:-1 112:-1 113:-1 114:-1 115:-1 116:-1 117:-1 118:-1 119:-0.846154 120:-1 121:-1 122:-1 123:-1 124:-1 125:-1 126:-1 127:-1 128:-1 129:-1 130:-1 131:-1 132:-1 133:-1 134:-1 135:-1 136:-1 137:-1 138:-1 139:-1 140:-1 141:-1 142:-1 143:-1 144:-1 145:-1 146:-1 147:-1 148:-1 149:-1 150:-1 151:-1 152:-1 153:-1 154:-1 155:-1 156:-1 157:-1 158:-0.733333 159:-1 160:-1 161:-1 162:-1 163:-1 164:-1 165:-1 167:-1 168:-1 169:-1 170:-1 171:-1 172:-1 173:-1 174:-1 175:-1 176:-1 177:-1 178:-1 179:-1 180:-1 181:-1 182:-1 183:-1 184:-1 185:-1 186:-1 187:-1 188:-1 189:-1 190:-1 191:-1 192:-1 193:-1 194:-1 195:-1 196:-1 197:-1 198:-0.942857 
49.17857164524641 1:-1 2:-1 3:-1 4:-1 5:-1 6:-1 7:-1 8:-1 9:-1 10:-1 11:-1 12:-1 13:-1 14:-1 15:-1 16:-1 17:-1 18:-1 19:-1 20:-1 21:-1 22:-1 23:-1 24:-1 25:-1 26:-1 27:-1 28:-1 29:-1 30:-1 31:-1 32:-1 33:-0.428571 34:-1 35:-1 36:-1 37:-1 38:-1 39:-1 40:-1 41:-1 42:-1 43:-1 44:-1 45:-1 46:-1 47:-1 48:-1 49:-1 50:-1 51:-1 52:-1 53:-1 54:-1 55:-1 56:-1 57:-1 58:-1 59:-1 60:-1 61:-1 62:-1 63:-0.826087 64:-1 65:-1 66:-1 67:-1 68:-1 69:-1 70:-1 71:-1 72:-1 73:-1 74:-1 75:-1 76:-1 77:-1 78:-1 79:-1 80:-1 81:-1 82:-1 83:-1 84:-1 85:-1 86:-1 87:-1 88:-1 89:-1 90:-1 91:-1 92:-1 93:-1 94:-1 95:-1 96:-1 97:-1 98:-1 99:-1 100:-1 101:-1 102:-1 103:-1 104:-1 105:-1 106:-1 107:-1 108:-1 109:-1 110:-1 111:-1 112:-1 113:-1 114:-1 115:-1 116:-1 117:-1 118:-1 119:-1 120:-1 121:-1 122:-1 123:-1 124:-1 125:-1 126:-1 127:-1 128:-1 129:-1 130:-1 131:-1 132:-1 133:-1 134:-1 135:-1 136:-1 137:-1 138:-1 139:-1 140:-1 141:-1 142:-1 143:-1 144:-1 145:-1 146:-1 147:-1 148:-1 149:-1 150:-1 151:-1 152:-1 153:-1 154:-1 155:-1 156:-1 157:-1 158:-0.2 159:-1 160:-1 161:-1 162:-1 163:-1 164:-1 165:-1 167:-1 168:-1 169:-1 170:-1 171:-1 172:-1 173:-1 174:-1 175:-1 176:-1 177:-1 178:-1 179:-1 180:-1 181:-1 182:-1 183:-1 184:-1 185:-1 186:-1 187:-1 188:-1 189:-1 190:-1 191:-1 192:-1 193:-1 194:-1 195:-1 196:-1 197:-1 198:-1 
128 1:-1 2:-1 3:-1 4:-1 5:-1 6:-1 7:-1 8:-1 9:-1 10:-1 11:-1 12:-1 13:-1 14:-1 15:-1 16:-1 17:-1 18:-1 19:-1 20:-1 21:-1 22:-1 23:-1 24:-1 25:-1 26:-1 27:-1 28:-1 29:-1 30:-1 31:-1 32:-1 33:-1 34:-1 35:-1 36:-1 37:-1 38:-1 39:-1 40:-1 41:-1 42:-1 43:-1 44:-1 45:-1 46:-1 47:-1 48:-1 49:-1 50:-1 51:-1 52:-1 53:-1 54:-1 55:-1 56:-1 57:-1 58:-1 59:-1 60:-1 61:-1 62:-1 63:-1 64:-1 65:-1 66:-1 67:-1 68:-1 69:-0.9375 70:-1 71:-1 72:-1 73:-1 74:-1 75:-1 76:-1 77:-1 78:-1 79:-1 80:-1 81:-1 82:-1 83:-1 84:-1 85:-1 86:-1 87:-1 88:-1 89:-1 90:-1 91:-1 92:-1 93:-1 94:-1 95:-1 96:-1 97:-1 98:-0.6 99:-1 100:-1 101:-1 102:-1 103:-1 104:-1 105:-1 106:-1 107:-1 108:-1 109:-1 110:-1 111:-1 112:-1 113:-1 114:-1 115:-1 116:-1 117:-1 118:-1 119:-1 120:-1 121:-1 122:-1 123:-1 124:-1 125:-1 126:-1 127:-1 128:-1 129:-1 130:-1 131:-1 132:-1 133:-1 134:-1 135:-1 136:-1 137:-1 138:-1 139:-1 140:-1 141:-1 142:-1 143:-1 144:-1 145:-1 146:-1 147:-1 148:-1 149:-1 150:-1 151:-1 152:-1 153:-1 154:-1 155:-1 156:-1 157:-1 158:-1 159:-1 160:-1 161:-1 162:-1 163:-1 164:-1 165:-1 167:-1 168:-1 169:-1 170:-1 171:-1 172:-1 173:-1 174:-1 175:-1 176:-1 177:-1 178:-1 179:-1 180:-1 181:-1 182:-1 183:-1 184:-1 185:-1 186:-1 187:-1 188:-1 189:-1 190:-1 191:-1 192:-1 193:-1 194:-1 195:-1 196:-1 197:-1 198:-1 
35.54904896469628 1:-1 2:-1 3:-1 4:-1 5:-1 6:-1 7:-1 8:-1 9:-0.666667 10:-1 11:-1 12:-1 13:-1 14:-1 15:-1 16:-1 17:-1 18:-1 19:-1 20:-1 21:-1 22:-1 23:-1 24:-1 25:-1 26:-1 27:-1 28:-1 29:-1 30:-1 31:-1 32:-1 33:-1 34:-1 35:-1 36:-1 37:-1 38:-1 39:-1 40:-1 41:-1 42:-1 43:-1 44:-1 45:-1 46:-1 47:-1 48:-1 49:-1 50:-1 51:-1 52:-1 53:-1 54:-1 55:-1 56:-1 57:-1 58:-1 59:-1 60:-1 61:-1 62:-1 63:-1 64:-1 65:-1 66:-1 67:-1 68:-1 69:-1 70:-1 71:-1 72:-1 73:-1 74:-1 75:-1 76:-1 77:-1 78:-1 79:-1 80:-1 81:-1 82:-1 83:-1 84:-1 85:-1 86:-1 87:-1 88:-1 89:-1 90:-1 91:-1 92:-1 93:-1 94:-1 95:-1 96:-1 97:-1 98:-1 99:-1 100:-1 101:-1 102:-1 103:-1 104:-1 105:-1 106:-1 107:-1 108:-1 109:-1 110:-1 111:-1 112:-1 113:-1 114:-1 115:-1 116:-1 117:-1 118:-1 119:-0.948718 120:-1 121:-1 122:-1 123:-1 124:-1 125:-1 126:-1 127:-1 128:-1 129:-1 130:-1 131:-1 132:-1 133:-1 134:-1 135:-1 136:-1 137:-1 138:-1 139:-1 140:-1 141:-1 142:-1 143:-1 144:-1 145:-1 146:-1 147:-1 148:-1 149:-1 150:-1 151:-1 152:-1 153:-1 154:-1 155:-1 156:-1 157:-1 158:-0.866667 159:-1 160:-1 161:-1 162:-1 163:-1 164:-1 165:-1 167:-1 168:-1 169:-1 170:-1 171:-1 172:-1 173:-1 174:-1 175:-1 176:-1 177:-1 178:-1 179:-1 180:-1 181:-1 182:-1 183:-1 184:-0.4 185:-1 186:-1 187:-1 188:-1 189:1 190:-1 191:-1 192:-1 193:-1 194:-1 195:-1 196:-1 197:-1 198:-1 
128 1:-1 2:-1 3:-1 4:-1 5:-1 6:-1 7:-1 8:-1 9:-1 10:-1 11:-1 12:-1 13:-1 14:-1 15:-1 16:-1 17:-1 18:-1 19:-1 20:-1 21:-1 22:-1 23:-1 24:-1 25:-1 26:-1 27:-1 28:-1 29:-1 30:-1 31:-1 32:-1 33:-0.857143 34:-1 35:-1 36:-1 37:-1 38:-1 39:-1 40:-1 41:-1 42:-1 43:-1 44:-1 45:-1 46:-1 47:-1 48:-1 49:-1 50:-1 51:-1 52:-1 53:-1 54:-1 55:-1 56:-1 57:-1 58:-1 59:-1 60:-1 61:-1 62:-1 63:-1 64:-1 65:-1 66:-1 67:-1 68:-1 69:-1 70:-1 71:-1 72:-1 73:-1 74:-1 75:-1 76:-0.714286 77:-1 78:-1 79:-1 80:-1 81:-1 82:-1 83:-1 84:-1 85:-1 86:-1 87:-1 88:-1 89:-1 90:-1 91:-1 92:-1 93:-1 94:-1 95:-1 96:-1 97:-1 98:-1 99:-1 100:-1 101:-1 102:-1 103:-1 104:-1 105:-1 106:-1 107:-1 108:-1 109:-1 110:-1 111:-1 112:-1 113:-1 114:-1 115:-1 116:-1 117:-1 118:-1 119:-0.948718 120:-1 121:-1 122:-0.333333 123:-1 124:-1 125:-1 126:-1 127:-1 128:-1 129:-1 130:-1 131:-1 132:-1 133:-1 134:-1 135:-1 136:-1 137:-1 138:-1 139:-1 140:-1 141:-1 142:-1 143:-1 144:-1 145:-1 146:-1 147:-1 148:-1 149:-1 150:-1 151:-1 152:-1 153:-1 154:-1 155:-1 156:-1 157:-1 158:-0.866667 159:-1 160:-1 161:-1 162:-1 163:-1 164:-1 165:-1 167:-1 168:-1 169:-1 170:-1 171:-1 172:-1 173:-1 174:-1 175:-1 176:-1 177:-1 178:-1 179:-1 180:-1 181:-1 182:-1 183:-1 184:-1 185:-1 186:-1 187:-0.25 188:-1 189:-1 190:-1 191:-1 192:-1 193:-1 194:-1 195:-1 196:-1 197:-1 198:0.2 
4.991368197802778 1:-1 2:-1 3:-1 4:-1 5:-1 6:-1 7:-1 8:-1 9:-1 10:-1 11:-1 12:-1 13:-1 14:-1 15:-1 16:-1 17:-1 18:-1 19:-1 20:-1 21:-1 22:-1 23:-1 24:-1 25:-1 26:-1 27:-1 28:-1 29:-1 30:-1 31:-0.5 32:-1 33:-1 34:-1 35:-1 36:-1 37:-1 38:-1 39:-1 40:-1 41:-1 42:-1 43:-1 44:-1 45:-1 46:-1 47:-1 48:-1 49:-1 50:-1 51:-1 52:-1 53:-1 54:-1 55:-1 56:-1 57:-1 58:-1 59:-1 60:-1 61:-1 62:-1 63:-1 64:-1 65:-1 66:-1 67:-1 68:-1 69:-1 70:-1 71:-1 72:-1 73:-1 74:-1 75:-1 76:-0.714286 77:-1 78:-1 79:-1 80:-1 81:-1 82:-1 83:-1 84:-1 85:-1 86:-1 87:-1 88:-1 89:-1 90:-1 91:-1 92:-1 93:-1 94:-1 95:-1 96:-1 97:-1 98:-0.8 99:-1 100:-1 101:-1 102:-1 103:-1 104:-1 105:-1 106:-1 107:-1 108:-0.333333 109:-1 110:-1 111:-1 112:-1 113:-1 114:-1 115:-1 116:-1 117:-1 118:-1 119:-0.846154 120:-1 121:-0.73913 122:-1 123:-1 124:-1 125:-0.931034 126:-0.333333 127:-1 128:-1 129:-1 130:-1 131:-1 132:-1 133:-1 134:-1 135:-1 136:-1 137:-1 138:-1 139:-1 140:-1 141:-1 142:-1 143:-1 144:-1 145:-1 146:-1 147:-1 148:-1 149:-1 150:-1 151:-1 152:-1 153:-1 154:-1 155:-1 156:-1 158:-1 159:-1 160:-1 161:-1 162:-1 163:-1 164:-1 165:-1 167:-1 168:-1 169:-1 170:-1 171:-1 172:-1 173:-1 174:-1 175:-1 176:-1 178:-1 179:-1 180:-1 181:-1 182:-1 183:-1 184:-1 185:-1 186:-1 187:-0.625 188:-1 189:-1 190:-1 191:-1 192:-1 193:-1 194:-1 195:-1 196:-1 197:-1 198:-0.542857 
128 1:-1 2:-1 3:-1 4:-1 5:-1 6:-1 7:-1 8:-1 9:-1 10:-1 11:-0.833333 12:-1 13:-1 14:-1 15:-1 16:-1 17:-1 18:-1 19:-1 20:-1 21:-1 22:-1 23:-1 24:-1 25:-1 26:-1 27:-1 28:-1 29:-1 30:-1 31:-1 32:-1 33:-1 34:-1 35:-1 36:-1 37:-1 38:-1 39:-1 40:-1 41:-1 42:-1 43:-1 44:-1 45:-1 46:-1 47:-1 48:-1 49:-1 50:-1 51:-1 52:-1 53:-1 54:-1 55:-1 56:-1 57:-1 58:-1 59:-1 60:-1 61:-1 62:-1 63:-1 64:-1 65:-1 66:-1 67:-1 68:-1 69:-0.9375 70:-1 71:-1 72:-1 73:-1 74:-1 75:-1 76:-1 77:-1 78:-1 79:-1 80:-1 81:-1 82:-1 83:-1 84:-1 85:-1 86:-1 87:-1 88:-1 89:-1 90:-1 91:-1 92:-1 93:-1 94:-1 95:-1 96:-1 98:-0.8 99:-1 100:-1 101:-1 102:-1 103:-1 104:-1 105:-1 106:-1 107:-1 108:-1 109:-1 110:-1 111:-1 112:-1 113:-1 114:-1 115:-1 116:-1 117:-1 118:-1 119:-1 120:-1 121:-1 122:-1 123:-1 124:-1 125:-1 126:-1 127:-1 128:-1 129:-1 130:-1 131:-1 132:-1 133:-1 134:-1 135:-1 136:-1 137:-1 138:-1 139:-1 140:-1 141:-1 142:-1 143:-1 144:-1 145:-1 146:-1 147:-1 148:-1 149:-1 150:-1 151:-1 152:-1 153:-1 154:-1 155:-1 156:-1 157:-1 158:-1 159:-1 160:-1 161:-1 162:-1 163:-1 164:-1 165:-1 167:-1 168:-1 169:-1 170:-1 171:-1 172:-1 173:-1 174:-1 175:-1 176:-1 177:-1 178:-1 179:-1 180:-1 181:-1 182:-1 183:-1 184:-1 185:-1 186:-1 187:-1 188:-1 189:-1 190:-1 191:-1 192:-1 193:-1 194:-1 195:-1 196:-1 197:-1 198:-0.828571 
128 1:-1 2:-1 3:-1 4:-1 5:-1 6:-1 7:-1 8:-1 9:-1 10:-1 11:-1 12:-1 13:-1 14:-1 15:-1 16:-1 17:-1 18:-1 19:-1 20:-1 21:-1 22:-1 23:-1 24:-1 25:-1 26:-1 27:-1 28:-1 29:-1 30:-1 31:-1 32:-1 33:-1 34:-1 35:-1 36:-1 37:-1 38:-1 39:-1 40:-1 41:-1 42:-1 43:-1 44:-1 45:-1 46:-1 47:-1 48:-1 49:-1 50:-1 51:-1 52:-1 53:-1 54:-1 55:-1 56:-1 57:-1 58:-1 59:-1 60:-1 61:-1 62:-1 63:-1 64:-1 65:-1 66:-1 67:-1 68:-1 69:-0.9375 70:-1 71:-1 72:-1 73:-1 74:-1 75:-1 76:-1 77:-1 78:-1 79:-1 80:-1 81:-1 82:-1 83:-1 84:-1 85:-1 86:-1 87:-1 88:-1 89:-1 90:-1 91:-1 92:-1 93:-1 94:-1 95:-1 96:-0.6 97:-1 98:-0.8 99:-1 100:-1 101:-1 102:-1 103:-1 104:-1 105:-1 106:-1 107:-1 108:-1 109:-1 110:-1 111:-1 112:-1 113:-1 114:-1 115:-1 116:-1 117:-1 118:-1 119:-1 120:-1 121:-0.913043 122:-1 123:-1 124:-1 125:-1 126:-1 127:-1 128:-1 129:-1 130:-1 131:-1 132:-1 133:-1 134:-1 135:-1 136:-1 137:-1 138:-1 139:-1 140:-1 141:-1 142:-1 143:-1 144:-0.894737 145:-1 146:-1 147:-1 148:-1 149:-1 150:-1 151:-1 152:-1 153:-1 154:-1 155:-1 156:-1 157:-1 158:-1 159:-1 160:-1 161:-1 162:-1 163:-1 164:-1 165:-1 167:-1 168:-1 169:-1 170:-1 171:-1 172:-1 173:-1 174:-1 175:-1 176:-1 177:-1 178:-1 179:-1 180:-1 181:-1 182:-1 183:-1 184:-1 185:-1 186:-1 187:-0.875 188:-1 189:-1 190:-1 191:-1 192:-1 193:-1 194:-1 195:-1 196:-1 197:-1 198:-0.714286 
128 1:-1 2:-1 3:-1 4:-1 5:-1 6:-1 7:-1 8:-1 9:-1 10:-1 11:-1 12:-1 13:-1 14:-1 15:-1 16:-1 17:-1 18:-1 19:-1 20:-1 21:-1 22:-1 23:-1 24:-1 25:-1 26:-1 27:-1 28:-1 29:-1 30:-1 31:-1 32:-1 33:-1 34:-1 35:-1 36:-1 37:-1 38:-1 39:-1 40:-1 41:-1 42:-1 43:-1 44:-1 45:-1 46:-1 47:-1 48:-1 49:-1 50:-1 51:-1 52:-1 53:-1 54:-1 55:-1 56:-0.666667 57:-1 58:-1 59:-1 60:-1 61:-1 62:-1 63:-0.826087 64:-1 65:-1 66:-1 67:-1 68:-1 69:-0.9375 70:-1 71:-1 72:-1 73:-1 74:-1 75:-1 76:-1 77:-1 78:-1 79:-1 80:-1 81:-1 82:-1 83:-1 84:-1 85:-1 86:-1 87:-1 88:-1 89:-1 90:-1 91:-1 92:-1 93:-1 94:-1 95:-1 96:-1 97:-1 98:-0.6 99:-1 100:-1 101:-1 102:-1 103:-1 104:-1 105:-1 106:-1 107:-1 108:-1 109:-1 110:-1 111:-1 112:-1 113:-1 114:-1 115:-1 116:-1 117:-1 118:-1 119:-0.846154 120:-1 121:-1 122:-1 123:-1 124:-1 125:-0.931034 126:-1 127:-1 128:-1 129:-1 130:-1 131:-1 132:-1 133:-1 134:-1 135:-1 136:-1 137:-1 138:-1 139:-1 140:-1 141:-1 142:-1 143:-1 144:-1 145:-1 146:-1 147:-1 148:-1 149:-1 150:-1 151:-1 152:-1 153:-1 154:-1 155:-1 156:-1 157:-1 158:-1 159:-1 160:-1 161:-1 162:-1 163:-1 164:-1 165:-1 167:-1 168:-1 169:-1 170:-1 171:-1 172:-1 173:-1 174:-1 175:-1 176:-1 177:-1 178:-1 179:-0.333333 180:-1 181:-1 182:-1 183:-1 184:-1 185:-1 186:-1 187:-0.375 188:-1 189:-1 190:-1 191:-1 192:-1 193:-1 194:-1 195:-1 196:-1 197:-1 198:-0.6 
128 1:-1 2:-1 3:-1 4:-1 5:-1 6:-1 7:-0.666667 8:-1 9:-1 10:-1 11:-1 12:-1 13:-1 14:-1 15:-1 16:-1 17:-1 18:-1 19:-1 20:-1 21:-1 22:-1 23:-1 24:-1 25:-1 26:-1 27:-1 28:-1 29:-1 30:-1 31:-1 32:-1 33:-1 34:-1 35:-1 36:-1 37:-1 38:-1 39:-1 40:-1 41:-1 42:-1 43:-1 44:-1 45:-1 46:-1 47:-1 48:-1 49:-1 50:-1 51:-1 52:-1 53:-1 54:-1 55:-1 56:-1 57:-1 58:-1 59:-1 60:-1 61:-1 62:-1 63:-1 64:-1 65:-1 66:-1 67:-1 68:-1 69:-1 70:-1 71:-1 72:-1 73:-1 74:-1 75:-1 76:-1 77:-1 78:-1 79:-1 80:-1 81:-1 82:-1 83:-1 84:-1 85:-1 86:-1 87:-1 88:-1 89:-1 90:-1 91:-1 92:-1 93:-1 94:-1 95:-1 96:-1 97:-1 98:-1 99:-1 100:-1 101:-1 102:-1 103:-1 104:-1 105:-1 106:-1 107:-1 108:-1 109:-1 110:-1 111:-1 112:-1 113:-1 114:-1 115:-1 116:-1 117:-1 118:-1 119:-1 120:-1 121:-0.913043 122:-1 123:-1 124:-1 125:-1 126:-1 127:-1 128:-1 129:-1 130:-1 131:-1 132:-1 133:-1 134:-1 135:-1 136:-1 137:-1 138:-1 139:-1 140:-1 141:-1 142:-1 143:-1 144:-1 145:-1 146:-1 147:-1 148:-1 149:-1 150:-1 151:-1 152:-1 153:-1 154:-1 155:-1 156:-1 157:-1 158:-1 159:-1 160:-1 161:-1 162:-0.666667 163:-1 164:-1 165:-1 167:-1 168:-1 169:-1 170:-1 171:-1 172:-1 173:-1 174:-1 175:-1 176:-1 177:-1 178:-1 179:-1 180:-1 181:-1 182:-1 183:-1 184:-1 185:-1 186:-1 187:-1 188:-1 189:-1 190:-1 191:-1 192:-1 193:-1 194:-1 195:-1 196:-1 197:-1 198:-0.771429 
128 1:-1 2:-1 3:-1 4:-1 5:-1 6:-1 7:-0.666667 8:-1 9:-1 10:-1 11:-1 12:-1 13:-1 14:-1 15:-1 16:-1 17:-1 18:-1 19:-1 20:-1 21:-1 22:-1 23:-1 24:-1 25:-1 26:-1 27:-1 28:-1 29:-1 30:-1 31:-1 32:-1 33:-1 34:-1 35:-1 36:-1 37:-1 38:-1 39:-1 40:-1 41:-1 42:-1 43:-1 44:-1 45:-1 46:-1 47:-1 48:-1 49:-1 50:-1 51:-1 52:-1 53:-1 54:-1 55:-1 56:-1 57:-1 58:-1 59:-1 60:-1 61:-1 62:-1 63:-1 64:-1 65:-1 66:-1 67:-1 68:-1 69:-1 70:-1 71:-1 72:-1 73:-1 74:-1 75:-1 76:-1 77:-1 78:-1 79:-1 80:-1 81:-1 82:-1 83:-1 84:-1 85:-1 86:-1 87:-1 88:-1 89:-1 90:-1 91:-1 92:-1 93:-1 94:-1 95:-1 96:-1 97:-1 98:-1 99:-1 100:-1 101:-1 102:-1 103:-1 104:-1 105:-1 106:-1 107:-1 108:-1 109:-1 110:-1 111:-1 112:-1 113:-1 114:-1 115:-1 116:-1 117:-1 118:-1 119:-1 120:-1 121:-0.913043 122:-0.833333 123:-1 124:-1 125:-1 126:-1 127:-1 128:-1 129:-1 130:-1 131:-1 132:-1 133:-1 134:-1 135:-1 136:-1 137:-1 138:-1 139:-1 140:-1 141:-1 142:-1 143:-1 144:-1 145:-1 146:-1 147:-1 148:-1 149:-1 150:-1 151:-1 152:-1 153:-1 154:-1 155:-1 156:-1 157:-1 158:-1 159:-1 160:-1 161:-1 162:-0.666667 163:-1 164:-1 165:-1 167:-1 168:-1 169:-1 170:-1 171:-1 172:-1 173:-1 174:-1 175:-1 176:-1 177:-1 178:-1 179:-1 180:-1 181:-1 182:-1 183:-1 184:-1 185:-1 186:-1 187:-0.875 188:-1 189:-1 190:-1 191:-1 192:-1 193:-1 194:-1 195:-1 196:-1 197:-1 198:-0.714286 
128 1:-1 2:-1 3:-1 4:-1 5:-1 6:-1 7:-1 8:-1 9:-1 10:-1 11:-1 12:-1 13:-1 14:-1 15:-1 16:-1 17:-1 18:-1 19:-1 20:-1 21:-1 22:-1 23:-1 24:-1 25:-1 26:-1 27:-1 28:-1 29:-1 30:-1 31:-1 32:-1 33:-1 34:-1 35:-1 36:-1 37:-1 38:-1 39:-1 40:-1 41:-1 42:-1 43:-1 44:-1 45:-1 46:-1 47:-1 48:-1 49:-1 50:-1 51:-1 52:-1 53:-1 54:-1 55:-1 56:-1 57:-1 58:-1 59:-1 60:-1 61:-1 62:-1 63:-0.913043 64:-1 65:-1 66:-1 67:-1 68:-1 69:-0.9375 70:-1 71:-1 72:-1 73:-1 74:-1 75:-1 76:-1 77:-1 78:-1 79:-1 80:-1 81:-1 82:-1 83:-1 84:-1 85:-1 86:-1 87:-1 88:-1 89:-1 90:-1 91:-1 92:-1 93:-1 94:-1 95:-1 96:-1 97:-1 98:-0.8 99:-1 100:-1 101:-1 102:-1 103:-1 104:-1 105:-1 106:-1 107:-1 108:-1 109:-1 110:-1 111:-1 112:-1 113:-1 114:-1 115:-1 116:-1 117:-1 118:-1 119:-0.948718 120:-1 121:-0.913043 122:-1 123:-1 124:-1 125:-1 126:-1 127:-1 128:-1 129:-1 130:-1 131:-1 132:-1 133:-1 134:-1 135:-1 136:-1 137:-1 138:-1 139:-1 140:-1 141:-1 142:-1 143:-1 144:-1 145:-1 146:-1 147:-1 148:-1 149:-1 150:-1 151:-1 152:-1 153:-1 154:-1 155:-1 156:-1 157:-1 158:-1 159:-1 160:-1 161:-1 162:-1 163:-1 164:-1 165:-1 167:-1 168:-1 169:-1 170:-1 171:-1 172:-1 173:-1 174:-1 175:-1 176:-1 177:-1 178:-1 179:-1 180:-1 181:-1 182:-1 183:-1 184:-1 185:-1 186:-1 187:-0.875 188:-1 189:-1 190:-1 191:-1 192:-1 193:-1 194:-1 195:-1 196:-1 197:-1 198:-0.714286 
128 1:-1 2:-1 3:-1 4:-1 5:-1 6:-1 7:-1 8:-1 9:-1 10:-1 11:-1 12:-1 13:-1 14:-1 15:-1 16:-1 17:-1 18:-1 19:-1 20:-1 21:-1 22:-1 23:-1 24:-1 25:-1 26:-1 27:-1 28:-1 29:-1 30:-1 31:-1 32:-1 33:-1 34:-1 35:-1 36:-1 37:-1 38:-1 39:-1 40:-1 41:-1 42:-1 43:-1 44:-1 45:-1 46:-1 47:-1 48:-1 49:-1 50:-1 51:-1 52:-1 53:-1 54:-1 55:-1 56:-1 57:-1 58:-1 59:-1 60:-1 61:-1 62:-1 63:-1 64:-1 65:-1 66:-1 67:-1 68:-1 69:-0.875 70:-1 71:-1 72:-1 73:-1 74:-1 75:-1 76:-1 77:-1 78:-1 79:-1 80:-1 81:-1 82:-1 83:-1 84:-1 85:-1 86:-1 87:-1 88:-1 89:-1 90:-1 91:-1 92:-1 93:-1 94:-1 95:-1 96:-1 97:-1 98:-0.4 99:-1 100:-1 101:-1 102:-1 103:-1 104:-1 105:-1 106:-1 107:-1 108:-1 109:-1 110:-1 111:-1 112:-1 113:-1 114:-1 115:-1 116:-1 117:-1 118:-1 119:-1 120:-1 121:-0.913043 122:-1 123:-1 124:-1 125:-1 126:-1 127:-1 128:-1 129:-1 130:-1 131:-1 132:-1 133:-1 134:-1 135:-1 136:-1 137:-1 138:-1 139:-1 140:-1 141:-1 142:-1 143:-1 144:-1 145:-1 146:-1 147:-1 148:-1 149:-1 150:-1 151:-1 152:-1 153:-1 154:-1 155:-1 156:-1 157:-1 158:-1 159:-1 160:-1 161:-1 162:-1 163:-1 164:-1 165:-1 167:-1 168:-1 169:-1 170:-1 171:-1 172:-1 173:-1 174:-1 175:-1 176:-1 177:-1 178:-1 179:-1 180:-1 181:-1 182:-1 183:-1 184:-1 185:-1 186:-1 187:-0.875 188:-1 189:-1 190:-1 191:-1 192:-1 193:-1 194:-1 195:-1 196:-1 197:-1 198:-0.714286 
128 1:-1 2:-1 3:-1 4:-1 5:-1 6:-1 7:-1 8:-1 9:-1 10:-1 11:-1 12:-1 13:-1 14:-1 15:-1 16:-1 17:-1 18:-1 19:-1 20:-1 21:-1 22:-1 23:-1 24:-1 25:-1 26:-1 27:-1 28:-1 29:-1 30:-1 31:-1 32:-1 33:-1 34:-1 35:-1 36:-1 37:-1 38:-1 39:-1 40:-1 41:-1 42:-1 43:-1 44:-1 45:-1 46:-1 47:-1 48:-1 49:-1 50:-1 51:-1 52:-1 53:-1 54:-1 55:-1 56:-1 57:-1 58:-1 59:-1 60:-1 61:-1 62:-1 63:-0.913043 64:-1 65:-1 66:-1 67:-1 68:-1 69:-1 70:-1 71:-1 72:-1 73:-1 74:-1 75:-1 76:-1 77:-1 78:-1 79:-1 80:-1 81:-1 82:-1 83:-1 84:-1 85:-1 86:-1 87:-1 88:-1 89:-1 90:-1 91:-1 92:-1 93:-1 94:-1 95:-1 96:-1 97:-1 98:-1 99:-1 100:-1 101:-1 102:-1 103:-1 104:-1 105:-1 106:-1 107:-1 108:-1 109:-1 110:-1 111:-1 112:-1 113:-1 114:-1 115:-1 116:-1 117:-1 118:-1 119:-0.948718 120:-1 121:-1 122:-0.5 123:-1 124:-1 125:-1 126:-1 127:-1 128:-1 129:-1 130:-1 131:-1 132:-1 133:-1 134:-1 135:-1 136:-1 137:-1 138:-1 139:-1 140:-1 141:-1 142:-1 143:-1 144:-1 145:-1 146:-1 147:-1 148:-1 149:-1 150:-1 151:-1 152:-1 153:-1 154:-1 155:-1 156:-1 157:-1 158:-1 159:-1 160:-1 161:-1 162:-1 163:-1 164:-1 165:-1 167:-1 168:-1 169:-1 170:-1 171:-1 172:-1 173:-1 174:-1 175:-1 176:-1 177:-1 178:-1 179:-1 180:-1 181:-1 182:-1 183:-1 184:-1 185:-1 186:-1 187:-0.625 188:-1 189:-1 190:-1 191:-1 192:-1 193:-1 194:-1 195:-1 196:-1 197:-1 198:-0.828571 
128 1:-1 2:-1 3:-1 4:-1 5:-1 6:-1 7:-1 8:-1 9:-1 10:-1 11:-1 12:-1 13:-1 14:-1 15:-1 16:-1 17:-1 18:-1 19:-1 20:-1 21:-1 22:-1 23:-1 24:-1 25:-1 26:-1 27:-1 28:-1 29:-1 30:-1 31:-1 32:-1 33:-1 34:-1 35:-1 36:-1 37:-1 38:-1 39:-1 40:-1 41:-1 42:-1 43:-1 44:-1 45:-1 46:-1 47:-1 48:-1 49:-1 50:-1 51:-1 52:-1 53:-1 54:-1 55:-1 56:-1 57:-1 58:-1 59:-1 60:-1 61:-1 62:-1 63:-1 64:-1 65:-1 66:-1 67:-1 68:-1 69:-1 70:-1 71:-1 72:-1 73:-1 74:-1 75:-1 76:-1 77:-1 78:-1 79:-1 80:-1 81:-1 82:-1 83:-1 84:-1 85:-1 86:-1 87:-1 88:-1 89:-1 90:-1 91:-1 92:-1 93:-1 94:-1 95:-1 96:-1 97:-1 98:-1 99:-1 100:-1 101:-1 102:-1 103:-1 104:-1 105:-1 106:-1 107:-1 108:-1 109:-1 110:-1 111:-1 112:-1 113:-1 114:-1 115:-1 116:-1 117:-1 118:-1 119:-0.948718 120:-1 121:-1 122:-0.833333 123:-1 124:-1 125:-1 126:-1 127:-1 128:-1 129:-1 130:-1 131:-1 132:-1 133:-1 134:-1 135:-1 136:-1 137:-1 138:-1 139:-1 140:-1 141:-1 142:-1 143:-1 144:-1 145:-1 146:-1 147:-1 148:-1 149:-1 150:-1 151:-1 152:-1 153:-1 154:-1 155:-1 156:-1 157:-1 158:-0.866667 159:-1 160:-1 161:-1 162:-1 163:-1 164:-1 165:-1 167:-1 168:-1 169:-1 170:-1 171:-1 172:-1 173:-1 174:-1 175:-1 176:-1 177:-1 178:-1 179:-1 180:-1 181:-1 182:-1 183:-1 184:-1 185:-1 186:-1 187:-1 188:-1 189:-1 190:-1 191:-1 192:-1 193:-1 194:-1 195:-1 196:-1 197:-1 198:-0.714286 
128 1:-1 2:-1 3:-1 4:-1 5:-1 6:-1 7:-1 8:-1 9:-1 10:-1 11:-1 12:-1 13:-1 14:-1 15:-1 16:-1 17:-1 18:-1 19:-1 20:-1 21:-1 22:-1 23:-1 24:-1 25:-1 26:-1 27:-1 28:-1 29:-1 30:-1 31:-1 32:-1 33:-0.857143 34:-1 35:-1 36:-1 37:-1 38:-1 39:-1 40:-1 41:-1 42:-1 43:-1 44:-1 45:-1 46:-1 47:-1 48:-1 49:-1 50:-1 51:-1 52:-1 53:-1 54:-1 55:-1 56:-1 57:-1 58:-1 59:-1 60:-1 61:-1 62:-1 63:-0.913043 64:-1 65:-1 66:-1 67:-1 68:-1 69:-1 70:-1 71:-1 72:-1 73:-1 74:-1 75:-1 76:-1 77:-1 78:-1 79:-1 80:-1 81:-1 82:-1 83:-1 84:-1 85:-1 86:-1 87:-1 88:-1 89:-1 90:-1 91:-1 92:-1 93:-1 94:-1 95:-1 96:-1 97:-1 98:-1 99:-1 100:-1 101:-1 102:-1 103:-1 104:-1 105:-1 106:-1 107:-1 108:-1 109:-1 110:-1 111:-1 112:-1 113:-1 114:-1 115:-1 116:-1 117:-1 118:-1 119:-1 120:-1 121:-1 122:-0.833333 123:-1 124:-1 125:-1 126:-1 127:-1 128:-1 129:-1 130:-1 131:-1 132:-1 133:-1 134:-1 135:-1 136:-1 137:-1 138:-1 139:-1 140:-1 141:-1 142:-1 143:-1 144:-1 145:-1 146:-1 147:-1 148:-1 149:-1 150:-1 151:-1 152:-1 153:-1 154:-1 155:-1 156:-1 157:-1 158:-0.866667 159:-1 160:-1 161:-1 162:-1 163:-1 164:-1 165:-1 167:-1 168:-1 169:-1 170:-1 171:-1 172:-1 173:-1 174:-1 175:-1 176:-1 177:-1 178:-1 179:-1 180:-1 181:-1 182:-1 183:-1 184:-1 185:-1 186:-1 187:-1 188:-1 189:-1 190:-1 191:-1 192:-1 193:-1 194:-1 195:-1 196:-1 197:-1 198:-0.714286 
128 1:-1 2:-1 3:-1 4:-1 5:-1 6:-1 7:-1 8:-1 9:-1 10:-1 11:-1 12:-1 13:-1 14:-1 15:-1 16:-1 17:-1 18:-1 19:-1 20:-1 21:-1 22:-1 23:-1 24:-1 25:-1 26:-1 27:-1 28:-1 29:-1 30:-1 31:-1 32:-1 33:-1 34:-1 35:-1 36:-1 37:-1 38:-1 39:-1 40:-1 41:-1 42:-1 43:-1 44:-0.846154 45:-1 46:-1 47:-1 48:-1 49:-1 50:-1 51:-1 52:-1 53:-1 54:-1 55:-1 56:-1 57:-1 58:-1 59:-1 60:-1 61:-1 62:-1 63:-1 64:-1 65:-1 66:-1 67:-1 68:-1 69:-0.9375 70:-1 71:-1 72:-1 73:-1 74:-1 75:-1 76:-1 77:-1 78:-1 79:-1 80:-1 81:-1 82:-1 83:-1 84:-1 85:-1 86:-1 87:-1 88:-1 89:-1 90:-1 91:-1 92:-1 93:-1 94:-1 95:-1 96:-1 97:-1 98:-1 99:-1 100:-1 101:-1 102:-1 103:-1 104:-1 105:-1 106:-1 107:-1 108:-1 109:-1 110:-1 111:-1 112:-1 113:-1 114:-1 115:-1 116:-1 117:-1 118:-1 119:-0.948718 120:-1 121:-0.826087 122:-0.833333 123:-1 124:-1 125:-0.931034 126:-1 127:-1 128:-1 129:-1 130:-1 131:-1 132:-1 133:-1 134:-1 135:-1 136:-1 137:-1 138:-1 139:-1 140:-1 141:-1 142:-1 143:-1 144:-1 145:-1 146:-1 147:-1 148:-1 149:-1 150:-1 151:-1 152:-1 153:-1 154:-1 155:-1 156:-1 157:-1 158:-1 159:-1 160:-1 161:-1 162:-1 163:-1 164:-1 165:-1 167:-1 168:-1 169:-1 170:-1 171:-1 172:-1 173:-1 174:-1 175:-1 176:-1 177:-1 178:-1 179:-1 180:-1 181:-1 182:-1 183:-1 184:-1 185:-1 186:-1 187:-1 188:-1 189:-1 190:-1 191:-1 192:-1 193:-1 194:-1 195:-1 196:-1 197:-1 198:-0.771429 
128 1:-1 2:-1 3:-1 4:-1 5:-1 6:-1 7:-1 8:-1 9:-1 10:-1 11:-1 12:-1 13:-1 14:-1 15:-1 16:-1 17:-1 18:-1 19:-1 20:-1 21:-1 22:-1 23:-1 24:-1 25:-1 26:-1 27:-1 28:-1 29:-1 30:-1 31:-1 32:-1 33:-1 34:-1 35:-1 36:-1 37:-1 38:-1 39:-1 40:-1 41:-1 42:-1 43:-1 44:-1 45:-1 46:-1 47:-1 48:-1 49:-1 50:-1 51:-1 52:-1 53:-1 54:-1 55:-1 56:-1 57:-1 58:-1 59:-1 60:-1 61:-1 62:-1 63:-1 64:-1 65:-1 66:-1 67:-1 68:-1 69:-1 70:-1 71:-1 72:-1 73:-1 74:-1 75:-1 76:-1 77:-1 78:-1 79:-1 80:-1 81:-1 82:-1 83:-1 84:-1 85:-1 86:-1 87:-1 88:-1 89:-1 90:-1 91:-1 92:-1 93:-1 94:-1 95:-1 96:-1 97:-1 98:-1 99:-1 100:-1 101:-1 102:-1 103:-1 104:-1 105:-1 106:-1 107:-1 108:-1 109:-1 110:-1 111:-1 112:-1 113:-1 114:-1 115:-1 116:-1 117:-1 118:-1 119:-1 120:-1 121:-1 122:-0.833333 123:-1 124:-1 125:-1 126:-1 127:-1 128:-1 129:-1 130:-1 131:-1 132:-1 133:-1 134:-1 135:-1 136:-1 137:-1 138:-1 139:-1 140:-1 141:-1 142:-1 143:-1 144:-1 145:-1 146:-1 147:-1 148:-1 149:-1 150:-1 151:-1 152:-1 153:-1 154:-1 155:-1 156:-1 157:-1 158:-1 159:-1 160:-1 161:-1 162:-1 163:-1 164:-1 165:-1 167:-1 168:-1 169:-1 170:-1 171:-1 172:-1 173:-1 174:-1 175:-1 176:-1 177:-1 178:-1 179:-1 180:-1 181:-1 182:-1 183:-1 184:-1 185:-1 186:-1 187:-0.375 188:-1 189:-1 190:-1 191:-1 192:-1 193:-1 194:-1 195:-1 196:-1 197:-1 198:-0.485714 
128 1:-1 2:-1 3:-1 4:-1 5:-1 6:-1 7:-1 8:-1 9:-1 10:-1 11:-1 12:-1 13:-1 14:-1 15:-1 16:-1 17:-1 18:-1 19:-1 20:-1 21:-1 22:-1 23:-1 24:-1 25:-1 26:-1 27:-1 28:-1 29:-1 30:-1 31:-1 32:-1 33:-0.857143 34:-1 35:-1 36:-1 37:-1 38:-1 39:-1 40:-1 41:-1 42:-1 43:-1 44:-1 45:-1 46:-1 47:-1 48:-1 49:-1 50:-1 51:-1 52:-1 53:-1 54:-1 55:-1 56:-1 57:-1 58:-1 59:-1 60:-1 61:-1 62:-1 63:-0.913043 64:-1 65:-1 66:-1 67:-1 68:-1 69:-1 70:-1 71:-1 72:-1 73:-1 74:-1 75:-1 76:-1 77:-1 78:-1 79:-1 80:-1 81:-1 82:-1 83:-1 84:-1 85:-1 86:-1 87:-1 88:-1 89:-1 90:-1 91:-1 92:-1 93:-1 94:-1 95:-1 96:-1 97:-1 98:-1 99:-1 100:-1 101:-1 102:-1 103:-1 104:-1 105:-1 106:-1 107:-1 108:-1 109:-1 110:-1 111:-1 112:-1 113:-1 114:-1 115:-1 116:-1 117:-1 118:-1 119:-0.897436 120:-1 121:-1 122:-0.833333 123:-1 124:-1 125:-1 126:-1 127:-1 128:-1 129:-1 130:-1 131:-1 132:-1 133:-1 134:-1 135:-1 136:-1 137:-1 138:-1 139:-1 140:-1 141:-1 142:-1 143:-1 144:-1 145:-1 146:-1 147:-1 148:-1 149:-1 150:-1 151:-1 152:-1 153:-1 154:-1 155:-1 156:-1 157:-1 158:-0.6 159:-1 160:-1 161:-1 162:-1 163:-1 164:-1 165:-1 167:-1 168:-1 169:-1 170:-1 171:-1 172:-1 173:-1 174:-1 175:-1 176:-1 177:-1 178:-1 179:-1 180:-1 181:-1 182:-1 183:-1 184:-1 185:-1 186:-1 187:-1 188:-1 189:-1 190:-1 191:-1 192:-1 193:-1 194:-1 195:-1 196:-1 197:-1 198:-0.428571 
103.0846601019074 1:-1 2:-1 3:-1 4:-1 5:-1 6:-1 7:-0.333333 8:-1 9:-1 10:-1 11:-1 12:-1 13:-1 14:-1 15:-1 16:-1 17:-1 18:-1 19:-1 20:-1 21:-1 22:-1 23:-1 24:-1 25:-1 26:-1 27:-1 28:-1 29:-1 30:-1 31:-1 32:-1 33:-1 34:-1 35:-1 36:-1 37:-1 38:-1 39:-1 40:-1 41:-1 42:-1 43:-1 44:-1 45:-1 46:-1 47:-1 48:-1 49:-1 50:-1 51:-1 52:-1 53:-1 54:-1 55:-1 56:-1 57:-1 58:-1 59:-1 60:-1 61:-1 62:-1 63:-1 64:-1 65:-1 66:-1 67:-1 68:-1 69:-1 70:-1 71:-1 72:-1 73:-1 74:-1 75:-1 76:-1 77:-1 78:-1 79:-1 80:-1 81:-1 82:-1 83:-1 84:-1 85:-1 86:-1 87:-1 88:-1 89:-1 90:-1 91:-1 92:-1 93:-1 94:-1 95:-1 96:-1 97:-1 98:-1 99:-1 100:-1 101:-1 102:-1 103:-1 104:-1 105:-1 106:-1 107:-1 108:-1 109:-1 110:-1 111:-1 112:-0.666667 113:-1 114:-1 115:-1 116:-1 117:-1 118:-1 119:-1 120:-1 121:-0.826087 122:-1 123:-1 124:-1 125:-1 126:-1 127:-1 128:-1 129:-1 130:-1 131:-1 132:-1 133:-1 134:-1 135:-1 136:-1 137:-1 138:-1 139:-1 140:-1 141:-1 142:-1 143:-1 144:-1 145:-1 146:-1 147:-0.666667 148:-1 149:-1 150:-1 151:-1 152:-1 153:-1 154:-1 155:-1 156:-1 157:-1 158:-1 159:-1 160:-1 161:-1 162:-0.333333 163:-1 164:-1 165:-1 167:-1 168:-1 169:-1 170:-1 171:-1 172:-1 173:-1 174:-1 175:-1 176:-1 177:-1 178:-1 179:-1 180:-1 181:-1 182:-1 183:-1 184:-1 185:-1 186:-1 187:-1 188:-1 189:-1 190:-1 191:-1 192:-1 193:-1 194:-1 195:-1 196:-1 197:-1 198:-0.828571 
128 1:-1 2:-1 3:-1 4:-1 5:-1 6:-1 7:-1 8:-1 9:-1 10:-1 11:-1 12:-1 13:-1 14:-1 15:-1 16:-1 17:-1 18:-1 19:-1 20:-1 21:-1 22:-1 23:-1 24:-1 25:-1 26:-1 27:-1 28:-1 29:-1 30:-1 31:-1 32:-1 33:-0.857143 34:-1 35:-1 36:-1 37:-1 38:-1 39:-1 40:-1 41:-1 42:-1 43:-1 44:-1 45:-1 46:-1 47:-1 48:-1 49:-1 50:-1 51:-1 52:-1 53:-1 54:-1 55:-1 56:-1 57:-1 58:-1 59:-1 60:-1 61:-1 62:-1 63:-0.913043 64:-1 65:-1 66:-1 67:-1 68:-1 69:-1 70:-1 71:-1 72:-1 73:-1 74:-1 75:-1 76:-1 77:-1 78:-1 79:-1 80:-1 81:-1 82:-1 83:-1 84:-1 85:-1 86:-1 87:-1 88:-1 89:-1 90:-1 91:-1 92:-1 93:-1 94:-1 95:-1 96:-1 97:-1 98:-1 99:-1 100:-1 101:-1 102:-1 103:-1 104:-1 105:-1 106:-1 107:-1 108:-1 109:-1 110:-1 111:-1 112:-1 113:-1 114:-1 115:-1 116:-1 117:-1 118:-1 119:-1 120:-1 121:-1 122:-1 123:-1 124:-1 125:-1 126:-1 127:-1 128:-1 129:-1 130:-1 131:-1 132:-1 133:-1 134:-1 135:-1 136:-1 137:-1 138:-1 139:-1 140:-1 141:-1 142:-1 143:-1 144:-1 145:-1 146:-1 147:-1 148:-1 149:-1 150:-1 151:-1 152:-1 153:-1 154:-1 155:-1 156:-1 157:-1 158:-0.866667 159:-1 160:-1 161:-1 162:-1 163:-1 164:-1 165:-1 167:-1 168:-1 169:-1 170:-1 171:-1 172:-1 173:-1 174:-1 175:-1 176:-1 177:-1 178:-1 179:-1 180:-1 181:-1 182:-1 183:-1 184:-1 185:-1 186:-1 187:-0.875 188:-1 189:-1 190:-1 191:-1 192:-1 193:-1 194:-1 195:-1 196:-1 197:-1 198:-0.714286 
128 1:-1 2:-1 3:-1 4:-1 5:-1 6:-1 7:-1 8:-1 9:-1 10:-1 11:-1 12:-1 13:-1 14:-1 15:-1 16:-1 17:-1 18:-1 19:-1 20:-1 21:-1 22:-1 23:-1 24:-1 25:-1 26:-1 27:-1 28:-1 29:-1 30:-1 31:-1 32:-1 33:-0.857143 34:-1 35:-1 36:-1 37:-1 38:-1 39:-1 40:-1 41:-1 42:-1 43:-1 44:-1 45:-1 46:-1 47:-1 48:-1 49:-1 50:-1 51:-1 52:-1 53:-1 54:-1 55:-1 56:-1 57:-1 58:-1 59:-1 60:-1 61:-1 62:-1 63:-1 64:-1 65:-1 66:-1 67:-1 68:-1 69:-1 70:-1 71:-1 72:-1 73:-1 74:-1 75:-1 76:-0.714286 77:-1 78:-1 79:-1 80:-1 81:-1 82:-1 83:-1 84:-1 85:-1 86:-1 87:-1 88:-1 89:-1 90:-1 91:-1 92:-1 93:-1 94:-1 95:-1 96:-1 97:-1 98:-1 99:-1 100:-1 101:-1 102:-1 103:-1 104:-1 105:-1 106:-1 107:-1 108:-1 109:-1 110:-1 111:-1 112:-1 113:-1 114:-1 115:-1 116:-1 117:-1 118:-1 119:-0.948718 120:-1 121:-1 122:-0.833333 123:-1 124:-1 125:-1 126:-1 127:-1 128:-1 129:-1 130:-1 131:-1 132:-1 133:-1 134:-1 135:-1 136:-1 137:-1 138:-1 139:-1 140:-1 141:-1 142:-1 143:-1 144:-1 145:-1 146:-1 147:-1 148:-1 149:-1 150:-1 151:-1 152:-1 153:-1 154:-1 155:-1 156:-1 157:-1 158:-0.866667 159:-1 160:-1 161:-1 162:-1 163:-1 164:-1 165:-1 167:-1 168:-1 169:-1 170:-1 171:-1 172:-1 173:-1 174:-1 175:-1 176:-1 177:-1 178:-1 179:-1 180:-1 181:-1 182:-1 183:-1 184:-1 185:-1 186:-1 187:-0.375 188:-1 189:-1 190:-1 191:-1 192:-1 193:-1 194:-1 195:-1 196:-1 197:-1 198:-0.485714 
94.36908568117073 1:-1 2:-1 3:-1 4:-1 5:-1 6:-1 7:-1 8:-1 9:-1 10:-1 11:-0.666667 12:-1 13:-1 14:-1 15:-1 16:-1 17:-1 18:-1 19:-1 20:-1 21:-1 22:-1 23:-1 24:-1 25:-1 26:-1 27:-1 28:-1 29:-1 30:-1 31:-1 32:-1 33:-1 34:-1 35:-1 36:-1 37:-1 38:-1 39:-1 40:-1 41:-1 42:-1 43:-1 44:-1 45:-1 46:-1 47:-1 48:-1 49:-1 50:-1 51:-1 52:-1 53:-0.333333 54:-1 55:-1 56:-1 57:-1 58:-1 59:-1 60:-1 61:-1 62:-1 63:-1 64:-1 65:-1 66:-1 67:-1 68:-1 69:-1 70:-1 71:-1 72:-1 73:-1 74:-1 75:-1 76:-1 77:-1 78:-1 79:-1 80:-1 81:-1 82:-1 83:-1 84:-1 85:-1 86:-1 87:-1 88:-1 89:-1 90:-1 91:-1 92:-1 93:-1 94:-1 95:-1 96:-1 97:-1 98:-1 99:-1 100:-1 101:-1 102:-1 103:-1 104:-1 105:-1 106:-1 107:-1 108:-1 109:-1 110:-1 111:-1 112:-1 113:-1 114:-1 115:-1 116:-1 117:-1 118:-1 119:-1 120:-1 121:-1 122:-1 123:-1 124:-1 125:-1 126:-1 127:-1 128:-1 129:-1 130:-1 131:-1 132:-1 133:-1 134:-1 135:-1 136:-1 137:-1 138:-1 139:-1 140:-1 141:-1 142:-1 143:-1 144:-1 145:-1 146:-1 147:-1 148:-1 149:-1 150:-1 151:-1 152:-1 153:-1 154:-1 155:-1 156:-1 157:-1 158:-1 159:-1 160:-1 161:-1 162:-1 163:-1 164:-1 165:-1 167:-1 168:-1 169:-1 170:-1 171:-1 172:-1 173:-1 174:-1 175:-1 176:-1 177:-1 178:-1 179:-1 180:-1 181:-1 182:-1 183:-1 184:-1 185:-1 186:-1 187:-1 188:-1 189:-1 190:-1 191:-1 192:-1 193:-1 194:-1 195:-1 196:-1 197:-1 198:-0.942857 
128 1:-1 2:-1 3:-1 4:-1 5:-1 6:-1 7:-1 8:-1 9:-1 10:-1 11:-1 12:-1 13:-1 14:-1 15:-1 16:-1 17:-1 18:-1 19:-1 20:-1 21:-1 22:-1 23:-1 24:-1 25:-1 26:-1 27:-1 28:-1 29:-1 30:-1 31:-1 32:-1 33:-1 34:-1 35:-1 36:-1 37:-1 38:-1 39:-1 40:-1 41:-1 42:-1 43:-1 44:-0.846154 45:-1 46:-1 47:-1 48:-1 49:-1 50:-1 51:-1 52:-1 53:-1 54:-1 55:-1 56:-1 57:-1 58:-1 59:-1 60:-1 61:-1 62:-1 63:-1 64:-1 65:-1 66:-1 67:-1 68:-1 69:-1 70:-1 71:-1 72:-1 73:-1 74:-1 75:-1 76:-1 77:-1 78:-1 79:-1 80:-1 81:-1 82:-1 83:-1 84:-1 85:-1 86:-1 87:-1 88:-1 89:-1 90:-1 91:-1 92:-1 93:-1 94:-1 95:-1 96:-1 97:-1 98:-1 99:-1 100:-1 101:-1 102:-1 103:-1 104:-1 105:-1 106:-1 107:-1 108:-1 109:-1 110:-1 111:-1 112:-1 113:-1 114:-1 115:-1 116:-1 117:-1 118:-1 119:-1 120:-1 121:-0.913043 122:-1 123:-1 124:-1 125:-1 126:-1 127:-1 128:-1 129:-1 130:-1 131:-1 132:-1 133:-1 134:-1 135:-1 136:-1 137:-1 138:-1 139:-1 140:-1 141:-1 142:-1 143:-1 144:-1 145:-1 146:-1 147:-1 148:-1 149:-1 150:-1 151:-1 152:-1 153:-1 154:-1 155:-1 156:-1 157:-1 158:-1 159:-1 160:-1 161:-1 162:-1 163:-1 164:-1 165:-1 167:-1 168:-1 169:-1 170:-1 171:-1 172:-1 173:-1 174:-1 175:-1 176:-1 177:-1 178:-1 179:-1 180:-1 181:-1 182:-1 183:-1 184:-1 185:-1 186:-1 187:-0.75 188:-1 189:-1 190:-1 191:-1 192:-1 193:-1 194:-1 195:-1 196:-1 197:-1 198:-0.485714 
128 1:-1 2:-1 3:-1 4:-1 5:-1 6:-1 7:-1 8:-1 9:-1 10:-1 11:-1 12:-1 13:-1 14:-1 15:-1 16:-1 17:-1 18:-1 19:-1 20:-1 21:-1 22:-1 23:-1 24:-1 25:-1 26:-1 27:-1 28:-1 29:-1 30:-1 31:-1 32:-1 33:-0.714286 34:-1 35:-1 36:-1 37:-1 38:-1 39:-1 40:-1 41:-1 42:-1 43:-1 44:-1 45:-1 46:-1 47:-1 48:-1 49:-1 50:-1 51:-1 52:-1 53:-1 54:-1 55:-1 56:-1 57:-1 58:-1 59:-1 60:-1 61:-1 62:-1 63:-1 64:-1 65:-1 66:-1 67:-1 68:-1 69:-1 70:-1 71:-1 72:-1 73:-1 74:-1 75:-1 76:-0.714286 77:-1 78:-1 79:-1 80:-1 81:-1 82:-1 83:-1 84:-1 85:-1 86:-1 87:-1 88:-1 89:-1 90:-1 91:-1 92:-1 93:-1 94:-1 95:-1 96:-1 97:-1 98:-1 99:-1 100:-1 101:-1 102:-1 103:-1 104:-1 105:-1 106:-1 107:-1 108:-1 109:-1 110:-1 111:-1 112:-1 113:-1 114:-1 115:-1 116:-1 117:-1 118:-1 119:-0.897436 120:-1 121:-1 122:-0.833333 123:-1 124:-1 125:-1 126:-1 127:-1 128:-1 129:-1 130:-1 131:-1 132:-1 133:-1 134:-1 135:-1 136:-1 137:-1 138:-1 139:-1 140:-1 141:-1 142:-1 143:-1 144:-1 145:-1 146:-1 147:-1 148:-1 149:-1 150:-1 151:-1 152:-1 153:-1 154:-1 155:-1 156:-1 157:-1 158:-0.466667 159:-1 160:-1 161:-1 162:-1 163:-1 164:-1 165:-1 167:-1 168:-1 169:-1 170:-1 171:-1 172:-1 173:-1 174:-1 175:-1 176:-1 177:-1 178:-1 179:-1 180:-1 181:-1 182:-1 183:-1 184:-1 185:-1 186:-1 187:-0.5 188:-1 189:-1 190:-1 191:-1 192:-1 193:-1 194:-1 195:-1 196:-1 197:-1 198:-0.885714 
